0.0110163	0.0400584	-0.0101659	-0.0448246	-0.0441711	0.00543594	0.0331115	0.0263859	-0.023427	-0.0304502	-0.02934	0.0479164	0.024287	0.0185916	0.0233289	-0.0265521	-0.0173178	0.0398046	0.0196452	0.0129368	0.0369699	0.0105698	0.0266212	-0.0185822	0.0397236	-0.0476716	0.00322533	-0.041204	0.0374093	0.0444019	-0.0367338	-0.0264489
0.0424861	0.00534989	-0.00987203	0.02637	0.0284122	-0.0291698	-0.0135177	0.000559248	0.0242225	0.017502	-0.0353033	0.0491988	-0.0273211	-0.0254347	-0.0472786	-0.0251475	-0.0403825	0.00328194	-0.0476884	-0.0339974	0.00541115	0.0236758	-0.017598	-0.0344247	0.028499	0.0423041	-0.00956838	0.0461849	-0.00241585	-0.0132201	-0.0384056	-0.0147823
0.886567	-0.517555	0.439153	-0.412693	-0.555515	0.498531	0.506693	0.562231	0.581119	0.443574	-0.472021	-0.506818	0.473672	-0.317211	0.489673	-0.521526	0.410209	-0.452674	-0.431157	0.517141	0.527556	-0.412185	0.449586	0.477596	-0.489784	0.498621	0.490083	-0.403708	0.423585	-0.455781	0.465316	0.502547
-0.288529	-0.452137	0.5023	-0.467092	-0.513255	0.408767	0.390074	0.379508	0.609134	0.498243	-0.448341	-0.508762	0.501642	-0.436433	0.482164	-0.482669	0.512621	-0.433404	-0.45322	0.441851	0.498151	-0.515553	0.441351	0.525707	-0.461548	0.399763	0.479967	-0.50797	0.471681	-0.501291	0.42077	0.461675
0.769909	-0.49926	0.546289	-0.4156	-0.369167	0.511371	0.523697	0.538179	0.416346	0.511467	-0.518071	-0.5203	0.454892	-0.551069	0.433724	-0.451721	0.451461	-0.482069	-0.503608	0.496703	0.435748	-0.455801	0.545721	0.459443	-0.463905	0.456366	0.449555	-0.471567	0.511706	-0.517211	0.359249	0.478088
0.159098	-0.447371	0.447	-0.480474	-0.511745	0.430619	0.435454	0.460673	0.236263	0.458693	-0.421342	-0.36582	0.518282	-0.20007	0.505019	-0.49003	0.541835	-0.454499	-0.543467	0.491073	0.529012	-0.500397	0.408804	0.437734	-0.4769	0.475312	0.552172	-0.463889	0.535318	-0.497845	0.479391	0.418046
-0.671033	-0.488676	0.363059	-0.38066	-0.404406	0.47351	0.425437	0.42485	0.525861	0.389652	-0.488736	-0.531987	0.48764	-0.701356	0.403143	-0.424064	0.469649	-0.430774	-0.493576	0.414403	0.442647	-0.486875	0.437668	0.40181	-0.320869	0.485207	0.477164	-0.407187	0.48677	-0.46255	0.355837	0.402555
-0.386836	-0.525987	0.468314	-0.465997	-0.526421	0.378918	0.542906	0.456405	0.209495	0.531865	-0.434548	-0.457315	0.404169	-0.295674	0.484942	-0.515999	0.522781	-0.381965	-0.529918	0.538719	0.491224	-0.504308	0.523342	0.500732	-0.401798	0.473319	0.505252	-0.50073	0.421735	-0.475377	0.533305	0.388199
0.0704835	-0.543868	0.536055	-0.498001	-0.435481	0.41014	0.512473	0.498801	0.246105	0.547034	-0.483723	-0.455878	0.496029	-0.375242	0.474746	-0.500481	0.438288	-0.525804	-0.482181	0.423671	0.45706	-0.500405	0.438118	0.497581	-0.529702	0.456336	0.485244	-0.514683	0.446259	-0.506433	0.538671	0.513027
0.878091	-0.449276	0.430728	-0.520745	-0.431234	0.424102	0.472465	0.449905	0.529021	0.363788	-0.498671	-0.485963	0.477124	-0.376896	0.433751	-0.47223	0.462306	-0.49764	-0.51072	0.480143	0.453592	-0.425915	0.537904	0.51641	-0.431057	0.521223	0.456618	-0.491859	0.421573	-0.492943	0.431986	0.469551
0.011241	-0.431257	0.502696	-0.5677	-0.556682	0.283991	0.354367	0.42877	0.363724	0.488678	-0.402779	-0.404666	0.491338	-0.803088	0.479032	-0.514746	0.416152	-0.473771	-0.409549	0.328258	0.300532	-0.517191	0.33649	0.220282	-0.468131	0.324518	0.287009	-0.254845	0.541139	-0.360478	0.608927	0.412225
0.707415	-0.409057	0.469851	-0.403201	-0.443392	0.48137	0.354761	0.207234	0.714611	0.463943	-0.471521	-0.394175	0.482842	-0.255557	0.432365	-0.395505	0.418539	-0.513664	-0.278055	0.343185	0.375747	-0.415003	0.267222	0.408894	-0.46609	0.361355	0.312182	-0.434083	0.365388	-0.346417	0.50082	0.371767
-0.516541	-0.128529	0.379858	-0.328515	-0.383417	0.507096	0.373345	0.152233	0.813627	0.392526	-0.343213	-0.394258	0.402115	0.10194	0.389338	-0.314377	0.324091	-0.499738	-0.286539	0.401722	0.391962	-0.32216	0.39935	0.428556	-0.418346	0.411548	0.40453	-0.456652	0.153776	-0.410617	0.5138	0.409766
-0.220193	-0.527336	0.477146	-0.518105	-0.476224	0.448009	0.487371	0.386816	0.389925	0.465174	-0.461189	-0.456684	0.467106	-0.484399	0.530701	-0.46571	0.459717	-0.416745	-0.496497	0.458153	0.43042	-0.526816	0.470548	0.444646	-0.431273	0.54647	0.479287	-0.388483	0.501737	-0.442208	0.380533	0.505383
0.889763	-0.413037	0.548213	-0.527851	-0.434149	0.568666	0.503837	0.460779	0.102773	0.511805	-0.549	-0.320149	0.427336	-0.358504	0.495619	-0.489696	0.473818	-0.43248	-0.442415	0.555239	0.475558	-0.522465	0.468237	0.510692	-0.495326	0.453333	0.462985	-0.526292	0.451402	-0.510539	0.385385	0.467968
0.638353	-0.480996	0.456716	-0.489521	-0.488345	0.464805	0.440429	0.440061	0.50475	0.403751	-0.460804	-0.336872	0.51858	-0.52986	0.474282	-0.519166	0.479044	-0.521469	-0.418196	0.516616	0.481817	-0.452977	0.40019	0.555076	-0.442394	0.391109	0.490796	-0.350341	0.452052	-0.446666	0.577922	0.444883
0.731208	-0.476733	0.51039	-0.418655	-0.41054	0.53176	0.415113	0.487889	0.22595	0.483927	-0.462384	-0.40573	0.405522	-0.57851	0.495486	-0.480704	0.508714	-0.493203	-0.543344	0.496944	0.447646	-0.473463	0.422177	0.500984	-0.496509	0.470236	0.480212	-0.473597	0.501268	-0.551304	0.436329	0.464844
0.900773	-0.368696	0.541011	-0.506591	-0.378468	0.500138	0.488913	0.567417	0.539035	0.51303	-0.419089	-0.417163	0.464097	-0.441419	0.458296	-0.46094	0.490888	-0.473204	-0.445879	0.544166	0.483349	-0.434624	0.408963	0.526736	-0.512257	0.506084	0.515363	-0.472367	0.480741	-0.445018	0.563375	0.433271
-0.0424745	-0.383428	0.428845	-0.550217	-0.525022	0.524084	0.418804	0.391469	0.617534	0.36166	-0.476531	-0.400942	0.469496	-0.412846	0.457841	-0.496491	0.488815	-0.420619	-0.480222	0.394759	0.404533	-0.471733	0.426653	0.492405	-0.492248	0.506336	0.440861	-0.470743	0.530444	-0.457262	0.473963	0.449816
0.664497	-0.427293	0.467123	-0.495017	-0.446497	0.515571	0.423297	0.556293	0.545604	0.40631	-0.438711	-0.421327	0.508654	-0.448331	0.46175	-0.517279	0.420832	-0.413901	-0.516444	0.539384	0.463237	-0.415432	0.531061	0.357871	-0.515107	0.424074	0.482815	-0.512206	0.480157	-0.472593	0.420074	0.501106
-0.195226	-0.364626	0.467871	-0.508425	-0.520516	0.478222	0.441839	0.48398	-0.0104392	0.424392	-0.493765	-0.432317	0.547325	-0.662591	0.513875	-0.479691	0.444379	-0.451462	-0.518165	0.407827	0.50986	-0.525007	0.351072	0.407377	-0.496524	0.484544	0.471849	-0.533666	0.479854	-0.487257	0.43587	0.439093
0.656343	-0.492363	0.401067	-0.448797	-0.470611	0.494263	0.451373	0.551463	0.62302	0.51249	-0.529364	-0.398992	0.529803	-0.601081	0.452943	-0.47538	0.403076	-0.474142	-0.474554	0.439316	0.458413	-0.532862	0.462924	0.467517	-0.486129	0.537543	0.404421	-0.380815	0.447959	-0.498304	0.46733	0.494998
0.0294501	-0.509075	0.496609	-0.502751	-0.481135	0.519977	0.556049	0.450074	0.304419	0.516623	-0.532363	-0.564957	0.433249	-0.649376	0.530474	-0.521368	0.435196	-0.54999	-0.434445	0.446989	0.439373	-0.452169	0.503012	0.466679	-0.547014	0.42997	0.39938	-0.42677	0.523261	-0.502353	0.457975	0.481903
0.492606	-0.45116	0.451416	-0.507492	-0.445421	0.436202	0.480343	0.364006	0.501346	0.488942	-0.381478	-0.453948	0.429673	-0.563767	0.492739	-0.499429	0.470351	-0.520272	-0.479071	0.401505	0.423034	-0.404484	0.511041	0.427852	-0.425044	0.446361	0.435596	-0.425836	0.45799	-0.458316	0.503147	0.37858
0.721954	-0.465539	0.486716	-0.522586	-0.410969	0.482847	0.398748	0.486574	0.561206	0.42475	-0.542384	-0.445523	0.442666	-0.371799	0.423857	-0.519643	0.496638	-0.456573	-0.497097	0.493011	0.513365	-0.478753	0.48393	0.536955	-0.437934	0.525006	0.431209	-0.520841	0.436813	-0.513371	0.553016	0.499832
0.628765	-0.348756	0.545744	-0.509817	-0.374729	0.517937	0.404595	0.52059	0.545792	0.539876	-0.44968	-0.347835	0.467085	-0.370273	0.504276	-0.550205	0.517041	-0.471404	-0.487954	0.485491	0.436119	-0.418522	0.540184	0.521988	-0.544556	0.471721	0.39423	-0.437554	0.469884	-0.501365	0.516913	0.424622
0.284412	-0.256588	0.460287	-0.276232	-0.446789	0.530063	0.482363	0.174558	0.834904	0.456337	-0.462452	-0.499805	0.493763	0.346519	0.423797	-0.452846	0.408019	-0.397797	-0.448798	0.349793	0.451204	-0.409839	0.443222	0.455742	-0.442158	0.518062	0.382755	-0.483887	0.256215	-0.438545	0.429995	0.496198
-0.932115	-0.38515	0.379597	-0.239289	-0.384143	0.415368	0.349495	0.430757	0.6981	0.40579	-0.468851	-0.576293	0.341678	-0.804563	0.35006	-0.341723	0.33771	-0.476237	-0.367644	0.308755	0.4831	-0.295799	0.286766	0.226138	-0.376053	0.453051	0.411478	-0.386061	0.443329	-0.407353	0.155853	0.522814
0.260875	-0.559776	0.44923	-0.480332	-0.439341	0.537312	0.460417	0.452553	0.207758	0.463985	-0.496597	-0.492416	0.481721	-0.576798	0.524555	-0.491041	0.432738	-0.4958	-0.521536	0.534504	0.461167	-0.491782	0.540635	0.441625	-0.438626	0.469617	0.454101	-0.515145	0.47214	-0.488229	0.53827	0.397535
0.715035	-0.442306	0.546969	-0.431713	-0.460007	0.443439	0.505691	0.495302	0.322845	0.549192	-0.456473	-0.465024	0.537108	-0.226822	0.537797	-0.435798	0.393613	-0.430007	-0.46223	0.481688	0.512204	-0.477208	0.504155	0.514215	-0.420261	0.434242	0.507799	-0.5424	0.409624	-0.401165	0.497852	0.471301
0.821414	-0.487609	0.53281	-0.546463	-0.438692	0.451706	0.430408	0.447287	0.486656	0.46682	-0.530339	-0.400335	0.507904	-0.53021	0.526241	-0.4413	0.499575	-0.365868	-0.494555	0.445682	0.43352	-0.531395	0.484112	0.468163	-0.500736	0.443468	0.408338	-0.455502	0.505401	-0.433502	0.519185	0.451544
0.688017	-0.467188	0.47887	-0.532854	-0.447955	0.384889	0.36952	0.495015	0.205898	0.508287	-0.46801	-0.479791	0.494161	-0.213188	0.559098	-0.447951	0.533258	-0.489153	-0.549479	0.490332	0.427128	-0.527607	0.505072	0.452071	-0.56657	0.516657	0.452041	-0.438497	0.561208	-0.465713	0.582522	0.538209
0.128702	-0.368857	0.494232	-0.47802	-0.436266	0.49	0.461252	0.466827	0.132576	0.450451	-0.424594	-0.371308	0.437164	-0.596302	0.448244	-0.536017	0.457945	-0.485106	-0.553084	0.485834	0.468082	-0.458993	0.495445	0.406265	-0.552443	0.481037	0.525935	-0.502663	0.466261	-0.452468	0.453496	0.510774
0.872484	-0.411336	0.449084	-0.417944	-0.383576	0.555206	0.473732	0.448497	0.435348	0.524159	-0.442001	-0.550786	0.422117	-0.329576	0.408505	-0.445291	0.474231	-0.512514	-0.425226	0.502448	0.502112	-0.4964	0.455361	0.501716	-0.544629	0.503048	0.478077	-0.45368	0.533205	-0.462486	0.484588	0.514066
0.908801	-0.488548	0.495435	-0.472309	-0.450791	0.452736	0.514137	0.431155	0.521169	0.45761	-0.396543	-0.468529	0.519356	-0.509343	0.54125	-0.456224	0.475805	-0.443336	-0.500108	0.519962	0.519667	-0.417755	0.451373	0.464927	-0.516541	0.496082	0.471266	-0.357845	0.553877	-0.407976	0.458953	0.507736
0.868301	-0.5688	0.448904	-0.505691	-0.439788	0.450281	0.505221	0.579933	0.438167	0.520747	-0.527011	-0.389299	0.500643	-0.50121	0.428545	-0.398408	0.505465	-0.423598	-0.490968	0.528476	0.503683	-0.513186	0.536921	0.398366	-0.489731	0.354731	0.407084	-0.466459	0.410045	-0.47513	0.428015	0.482314
0.772123	-0.480275	0.452583	-0.392692	-0.461124	0.366316	0.414415	0.555387	0.14203	0.544115	-0.525192	-0.416705	0.492282	-0.409548	0.524069	-0.522299	0.49111	-0.500464	-0.45331	0.50914	0.512113	-0.507025	0.446693	0.525926	-0.459953	0.508137	0.505311	-0.401636	0.430718	-0.450563	0.381862	0.437457
0.215726	-0.43926	0.451885	-0.452618	-0.353658	0.414729	0.52171	0.475258	0.517187	0.462077	-0.424577	-0.481868	0.497933	-0.574128	0.455808	-0.5082	0.439559	-0.49257	-0.506676	0.474481	0.447845	-0.458379	0.468633	0.493308	-0.527337	0.513197	0.43537	-0.41771	0.431254	-0.523584	0.489381	0.553575
-0.118417	-0.373625	0.490613	-0.450096	-0.509326	0.480884	0.42425	0.543301	0.694167	0.321685	-0.403016	-0.458276	0.468517	-0.469631	0.497024	-0.444993	0.426681	-0.494973	-0.520819	0.494209	0.466034	-0.40083	0.476854	0.487423	-0.430642	0.353074	0.411706	-0.48503	0.472157	-0.517684	0.543177	0.487918
0.615099	-0.542981	0.438164	-0.522667	-0.512495	0.368197	0.548285	0.414092	0.210322	0.476487	-0.483716	-0.407159	0.518129	-0.495442	0.547596	-0.478935	0.475756	-0.419512	-0.55543	0.521526	0.501005	-0.465181	0.438358	0.506615	-0.508391	0.432938	0.51597	-0.420383	0.480531	-0.464517	0.450191	0.560139
0.797804	-0.406761	0.456241	-0.427953	-0.446988	0.45383	0.387927	0.482685	0.585291	0.49428	-0.486341	-0.345944	0.484463	-0.552928	0.538273	-0.42424	0.458059	-0.4306	-0.536186	0.437072	0.409734	-0.442205	0.481081	0.506383	-0.479589	0.519348	0.482349	-0.405362	0.475103	-0.517533	0.533391	0.448266
0.706749	-0.447408	0.497654	-0.548686	-0.484304	0.504841	0.431375	0.395366	0.382621	0.5053	-0.433534	-0.551583	0.507557	-0.262082	0.47049	-0.429774	0.472985	-0.40124	-0.45624	0.507783	0.494979	-0.534265	0.523659	0.531458	-0.50786	0.479267	0.440639	-0.434679	0.51344	-0.488012	0.525177	0.432129
-0.138248	-0.395878	0.41755	-0.367192	-0.485619	0.370383	0.390631	0.396933	0.371135	0.476052	-0.539538	-0.455431	0.447412	-0.519817	0.465186	-0.494076	0.511287	-0.534604	-0.411858	0.481958	0.355981	-0.506002	0.408435	0.415424	-0.433091	0.476793	0.412088	-0.453736	0.444871	-0.491364	0.558923	0.509957
0.448651	-0.428769	0.532367	-0.433048	-0.505048	0.462072	0.393537	0.420134	0.452036	0.52718	-0.503444	-0.436716	0.410885	-0.294651	0.442225	-0.458639	0.457961	-0.544304	-0.45985	0.452134	0.438582	-0.481569	0.535613	0.514851	-0.493385	0.50835	0.468799	-0.528738	0.46776	-0.493025	0.478545	0.492308
-0.105769	-0.385171	0.375864	-0.507902	-0.429473	0.465848	0.367407	0.509474	0.591622	0.515554	-0.392403	-0.426331	0.502003	-0.266691	0.420587	-0.490431	0.481512	-0.473542	-0.43138	0.436625	0.385299	-0.514203	0.468503	0.3816	-0.458985	0.451068	0.383107	-0.441634	0.45786	-0.430118	0.537786	0.529164
-0.0017928	-0.526397	0.436387	-0.528638	-0.436245	0.535253	0.53882	0.403602	0.143266	0.477334	-0.395973	-0.380529	0.457081	-0.591404	0.529991	-0.504885	0.512328	-0.479989	-0.463585	0.479622	0.436863	-0.462381	0.465162	0.457727	-0.493596	0.473443	0.44286	-0.475851	0.514547	-0.441077	0.442434	0.383181
0.312477	-0.550555	0.51768	-0.460273	-0.458401	0.470936	0.500353	0.414343	0.533744	0.39267	-0.481789	-0.462487	0.505204	-0.54977	0.480861	-0.469872	0.409957	-0.508941	-0.490061	0.466018	0.507719	-0.437697	0.517017	0.423633	-0.529891	0.464773	0.51865	-0.447446	0.369845	-0.437013	0.51724	0.412187
0.391567	-0.517275	0.479949	-0.441662	-0.50902	0.477356	0.413681	0.457827	0.487339	0.490199	-0.484881	-0.34989	0.528821	-0.510277	0.504506	-0.43264	0.505477	-0.388153	-0.50324	0.421145	0.514922	-0.443913	0.344439	0.447656	-0.455567	0.458224	0.437034	-0.459872	0.405169	-0.503981	0.458985	0.365565
0.753855	-0.271866	0.436082	-0.488846	-0.460466	0.43364	0.443701	0.391279	0.702707	0.510677	-0.385666	-0.467242	0.419684	-0.530288	0.451864	-0.439693	0.37604	-0.450007	-0.475788	0.432534	0.504911	-0.431346	0.425017	0.463192	-0.469548	0.356207	0.523162	-0.448569	0.429052	-0.514473	0.499929	0.446409
0.87883	-0.460982	0.49441	-0.501635	-0.39242	0.507501	0.556963	0.540998	0.496182	0.494375	-0.526736	-0.52668	0.498658	-0.222761	0.40867	-0.450032	0.48517	-0.517391	-0.502204	0.530031	0.457117	-0.485619	0.505882	0.478585	-0.496872	0.539999	0.514371	-0.468628	0.392543	-0.485827	0.485542	0.52313
0.793869	-0.480611	0.414439	-0.535898	-0.318833	0.542136	0.48378	0.496926	0.578801	0.537981	-0.458117	-0.439896	0.492175	-0.613463	0.521501	-0.422082	0.425289	-0.487314	-0.459171	0.472791	0.471947	-0.445313	0.519152	0.551123	-0.466674	0.484831	0.394844	-0.504373	0.446202	-0.530659	0.359409	0.514119
0.762981	-0.405488	0.455347	-0.517995	-0.465523	0.518471	0.459146	0.437806	0.566605	0.416609	-0.502889	-0.420737	0.541846	-0.596007	0.520397	-0.458674	0.488535	-0.545555	-0.52362	0.421668	0.490421	-0.444614	0.467538	0.523396	-0.428181	0.450046	0.458452	-0.490363	0.415046	-0.484918	0.492383	0.488701
0.674563	-0.430042	0.509928	-0.409429	-0.443849	0.337902	0.459817	0.560393	0.547693	0.490559	-0.561352	-0.518808	0.45263	-0.402437	0.549296	-0.44351	0.472173	-0.458454	-0.473798	0.457281	0.515446	-0.544505	0.5165	0.523448	-0.547371	0.475587	0.518476	-0.466707	0.472446	-0.459734	0.566285	0.53106
0.692171	-0.552496	0.466688	-0.497745	-0.472562	0.486404	0.483062	0.515314	0.218315	0.482457	-0.474122	-0.434278	0.467074	-0.586162	0.387303	-0.522061	0.55055	-0.492577	-0.448994	0.553109	0.436355	-0.500143	0.544773	0.491885	-0.470435	0.454631	0.469297	-0.526141	0.520063	-0.535988	0.393896	0.459157
0.551639	-0.420498	0.468942	-0.553295	-0.439173	0.486239	0.491327	0.479918	0.756198	0.521602	-0.43596	-0.423298	0.475922	0.0535415	0.493423	-0.483828	0.466448	-0.473254	-0.429508	0.427073	0.500174	-0.432043	0.320517	0.455987	-0.52861	0.401013	0.448031	-0.482639	0.503936	-0.406114	0.376875	0.572321
0.717221	-0.405097	0.46835	-0.495749	-0.531379	0.453144	0.554228	0.432483	0.571624	0.438558	-0.501429	-0.486464	0.438575	-0.505003	0.499588	-0.532933	0.495569	-0.454176	-0.549076	0.541724	0.501609	-0.512015	0.502401	0.440061	-0.470373	0.441277	0.409845	-0.417869	0.412598	-0.446918	0.421774	0.501552
0.663662	-0.426813	0.506063	-0.477182	-0.479278	0.445904	0.508271	0.549228	0.645554	0.445079	-0.459022	-0.385731	0.453698	-0.220393	0.544385	-0.522999	0.484923	-0.379404	-0.427929	0.539981	0.530089	-0.479936	0.477446	0.466294	-0.488154	0.473389	0.475555	-0.477058	0.452264	-0.520958	0.533602	0.44807
0.28627	-0.413034	0.507782	-0.546429	-0.494996	0.454669	0.491739	0.472273	0.398993	0.496327	-0.489004	-0.539548	0.4545	-0.314998	0.501341	-0.440109	0.463781	-0.518468	-0.470642	0.520355	0.428081	-0.466901	0.476136	0.47144	-0.458816	0.51427	0.493483	-0.532503	0.531129	-0.438754	0.497433	0.445252
0.321197	-0.478307	0.427464	-0.442145	-0.389692	0.44998	0.473924	0.539639	0.59786	0.408866	-0.415157	-0.459103	0.470347	-0.534804	0.49822	-0.40901	0.41389	-0.433313	-0.519178	0.473304	0.483112	-0.411317	0.496648	0.465199	-0.455001	0.507794	0.455149	-0.45255	0.432074	-0.507972	0.504129	0.450344
0.67205	-0.503399	0.51506	-0.482439	-0.506372	0.445594	0.513081	0.528919	0.536687	0.464102	-0.490779	-0.517418	0.430008	-0.193371	0.452644	-0.44334	0.407603	-0.355024	-0.429977	0.543749	0.449255	-0.479691	0.488329	0.463798	-0.411038	0.527636	0.429859	-0.410246	0.515851	-0.463485	0.559395	0.51918
0.345238	-0.514643	0.430213	-0.458639	-0.411159	0.398755	0.494499	0.531965	0.150656	0.445787	-0.436244	-0.482276	0.45225	-0.46646	0.478667	-0.381191	0.424399	-0.503511	-0.455644	0.388607	0.457652	-0.46169	0.416832	0.373598	-0.481841	0.486889	0.500212	-0.398117	0.413902	-0.364612	0.361773	0.420233
-0.474052	-0.330001	0.261313	-0.375212	-0.447361	0.30215	0.348101	0.0734973	0.664687	0.272185	-0.246255	-0.429886	0.417599	-0.263352	0.201924	-0.303893	0.285471	-0.463014	-0.292147	0.277091	0.285265	-0.341759	0.354413	0.261582	-0.279081	0.403474	0.393461	-0.366064	0.160826	-0.35558	0.401486	0.327503
-0.0632565	-0.423582	0.420553	-0.508079	-0.3501	0.575667	0.429842	0.526992	0.546047	0.39291	-0.491208	-0.511551	0.493306	-0.56912	0.543466	-0.431233	0.466444	-0.489873	-0.455279	0.439117	0.493112	-0.494621	0.443151	0.459097	-0.44042	0.387957	0.473732	-0.509306	0.414845	-0.427704	0.438052	0.528286
0.567031	-0.444122	0.458745	-0.510438	-0.342883	0.396212	0.531253	0.447451	0.415703	0.448465	-0.507465	-0.393118	0.438069	-0.461189	0.508683	-0.500838	0.472311	-0.449221	-0.456849	0.4826	0.487293	-0.490128	0.513135	0.557001	-0.515655	0.5398	0.519416	-0.485367	0.539354	-0.449385	0.443996	0.52672
0.749972	-0.476554	0.464227	-0.351192	-0.524474	0.477986	0.493303	0.464989	0.41112	0.418439	-0.46441	-0.462126	0.433548	-0.49083	0.466879	-0.446002	0.462285	-0.527881	-0.456884	0.530756	0.414053	-0.478538	0.433542	0.413867	-0.397516	0.500754	0.446864	-0.459662	0.480316	-0.420916	0.396557	0.501609
0.726438	-0.423116	0.542811	-0.519323	-0.411969	0.341365	0.470787	0.48306	0.4293	0.550952	-0.429478	-0.418427	0.453243	-0.228374	0.477043	-0.443913	0.510372	-0.438057	-0.456168	0.512097	0.514599	-0.558277	0.511753	0.496822	-0.491351	0.441788	0.469265	-0.413136	0.489349	-0.510675	0.565404	0.478841
0.442463	-0.502466	0.494798	-0.42638	-0.367094	0.447041	0.432087	0.544331	0.299735	0.494353	-0.517472	-0.430163	0.412625	-0.665997	0.418384	-0.467804	0.545649	-0.438446	-0.480188	0.513642	0.546463	-0.500641	0.474881	0.448124	-0.477368	0.505366	0.47377	-0.4998	0.460811	-0.521747	0.546689	0.410163
0.64227	-0.50117	0.493161	-0.437757	-0.490007	0.591752	0.460723	0.449721	0.209628	0.464625	-0.42397	-0.311991	0.508241	-0.324198	0.524698	-0.421574	0.471825	-0.423365	-0.488506	0.407517	0.368028	-0.509294	0.439286	0.455483	-0.485372	0.494233	0.421499	-0.536465	0.537151	-0.489783	0.583537	0.445209
0.765056	-0.43873	0.443624	-0.483271	-0.458856	0.499981	0.469324	0.43157	0.327319	0.438415	-0.405838	-0.300242	0.428643	-0.648914	0.480092	-0.462632	0.498758	-0.43905	-0.524537	0.525061	0.530491	-0.474917	0.438396	0.478335	-0.541493	0.437851	0.409943	-0.422771	0.468945	-0.513031	0.460741	0.528224
0.780226	-0.39779	0.40497	-0.462303	-0.578956	0.394512	0.480487	0.482404	0.443297	0.526458	-0.5078	-0.403299	0.398257	-0.284554	0.511213	-0.44818	0.443369	-0.513464	-0.497936	0.52146	0.516363	-0.462544	0.31231	0.387762	-0.414536	0.429926	0.369249	-0.478468	0.400878	-0.510677	0.45916	0.40574
1.03379	-0.144718	0.251397	-0.382399	-0.434241	0.424329	0.435056	0.174441	0.953844	0.349011	-0.490237	-0.607435	0.35267	0.50151	0.162216	-0.326219	0.32536	-0.371072	-0.305254	0.268668	0.427966	-0.313505	0.284943	0.417963	-0.438097	0.541264	0.46056	-0.353619	0.369002	-0.438274	0.559217	0.434736
0.589305	-0.437342	0.429412	-0.526169	-0.424744	0.490263	0.458686	0.538966	0.561582	0.462152	-0.427786	-0.443307	0.492084	-0.564839	0.459068	-0.494546	0.45953	-0.45171	-0.468751	0.476067	0.414646	-0.458461	0.502059	0.54162	-0.472992	0.452654	0.438363	-0.354994	0.447813	-0.430548	0.528091	0.431271
0.0263865	-0.472817	0.530629	-0.477052	-0.428444	0.470156	0.428373	0.448838	0.335519	0.437135	-0.513463	-0.39102	0.460327	-0.409138	0.418891	-0.534451	0.428568	-0.496102	-0.517058	0.44602	0.442109	-0.447607	0.455019	0.394279	-0.507627	0.518875	0.492409	-0.46754	0.491445	-0.405119	0.432396	0.525273
0.447335	-0.467074	0.450179	-0.524862	-0.529871	0.474934	0.467807	0.36483	0.410286	0.422395	-0.460175	-0.47838	0.492899	-0.662986	0.513908	-0.494375	0.404129	-0.428313	-0.465016	0.48553	0.403437	-0.494287	0.442273	0.435896	-0.451485	0.407855	0.468523	-0.488151	0.51709	-0.483372	0.497491	0.414555
0.837772	-0.310293	0.485722	-0.441004	-0.514528	0.465402	0.416924	0.298298	0.695092	0.488341	-0.383906	-0.456725	0.444287	-0.352476	0.376394	-0.424845	0.380607	-0.46742	-0.437788	0.415453	0.514469	-0.424241	0.391822	0.503106	-0.532354	0.464281	0.334286	-0.53402	0.370227	-0.415439	0.358469	0.529488
0.395334	-0.378961	0.46778	-0.513118	-0.46773	0.489205	0.429422	0.467005	0.596152	0.478191	-0.419736	-0.396001	0.431242	-0.197175	0.490946	-0.551371	0.43539	-0.374228	-0.450003	0.462675	0.490123	-0.539733	0.528216	0.55978	-0.476781	0.472517	0.48185	-0.489761	0.447662	-0.446862	0.515994	0.50285
0.229172	-0.405684	0.419668	-0.520351	-0.492672	0.451995	0.481845	0.530001	0.341447	0.422017	-0.4647	-0.313697	0.419428	-0.489478	0.455816	-0.454503	0.43562	-0.495623	-0.41972	0.427462	0.394801	-0.411895	0.487328	0.434852	-0.441426	0.535317	0.444505	-0.446919	0.480597	-0.431456	0.442091	0.447011
0.0645162	-0.421408	0.549058	-0.307919	-0.467428	0.571178	0.469893	0.359105	0.704694	0.533589	-0.444942	-0.574476	0.491913	0.0854241	0.373253	-0.529262	0.486364	-0.511583	-0.486393	0.456361	0.493979	-0.484405	0.41468	0.365236	-0.451628	0.520794	0.493041	-0.438325	0.402579	-0.384967	0.443464	0.465811
0.612751	-0.506641	0.534499	-0.445515	-0.413851	0.413229	0.408043	0.51615	0.548213	0.511441	-0.438598	-0.415089	0.494551	-0.420696	0.484716	-0.506129	0.41697	-0.450299	-0.515855	0.449311	0.496577	-0.451994	0.495159	0.515002	-0.517166	0.469832	0.418986	-0.495254	0.418021	-0.460355	0.519011	0.471524
0.47127	-0.524172	0.522344	-0.463068	-0.441899	0.472104	0.46839	0.465172	0.515506	0.461862	-0.504189	-0.477969	0.413164	-0.504579	0.433964	-0.413455	0.486474	-0.469617	-0.426395	0.438279	0.442578	-0.492732	0.510701	0.488482	-0.492808	0.410723	0.442526	-0.438018	0.521555	-0.459511	0.509425	0.462814
0.825416	-0.509864	0.483088	-0.486972	-0.453652	0.399958	0.523791	0.496	0.274206	0.500458	-0.466573	-0.491905	0.448558	-0.388894	0.529904	-0.46133	0.384621	-0.496154	-0.449425	0.538209	0.483634	-0.532349	0.485363	0.439516	-0.536024	0.384534	0.412823	-0.524393	0.493724	-0.416072	0.497132	0.473699
0.238607	-0.524585	0.498395	-0.354493	-0.554248	0.427016	0.482908	0.489481	0.550543	0.459137	-0.464436	-0.490964	0.498885	-0.652165	0.491516	-0.521602	0.481076	-0.437159	-0.465817	0.492956	0.446075	-0.536233	0.477377	0.35415	-0.374755	0.495506	0.544309	-0.410877	0.437454	-0.499929	0.392337	0.53328
0.815913	-0.456363	0.505336	-0.487924	-0.490042	0.353401	0.449077	0.419036	0.574991	0.510036	-0.51902	-0.526894	0.498333	-0.224721	0.475636	-0.445527	0.420673	-0.341841	-0.483813	0.478704	0.465715	-0.505993	0.531397	0.480906	-0.510137	0.513337	0.461334	-0.515601	0.489325	-0.512535	0.399256	0.400503
0.842092	-0.471065	0.522702	-0.541357	-0.39878	0.53939	0.467481	0.544285	0.279791	0.55184	-0.478853	-0.428611	0.471249	-0.601854	0.507389	-0.443419	0.480402	-0.545646	-0.528227	0.494078	0.51971	-0.537913	0.449592	0.355084	-0.490317	0.459771	0.483837	-0.416508	0.478379	-0.478444	0.418358	0.408359
0.123708	-0.412899	0.410542	-0.46741	-0.448609	0.238384	0.606714	0.43823	-0.0560957	0.414771	-0.44013	-0.417631	0.385561	-0.326758	0.476459	-0.478103	0.445177	-0.470754	-0.492384	0.569848	0.461773	-0.438232	0.463202	0.393383	-0.405303	0.431135	0.462492	-0.356237	0.562425	-0.449116	0.551003	0.516268
-0.408781	-0.345628	0.436032	-0.339533	-0.433244	0.490356	0.369612	0.393642	0.682492	0.389562	-0.41098	-0.465548	0.390326	-0.465542	0.410485	-0.467103	0.493232	-0.538772	-0.397486	0.394727	0.478708	-0.369267	0.464132	0.444239	-0.46101	0.38906	0.45167	-0.503198	0.363918	-0.470665	0.303145	0.490927
0.652516	-0.503274	0.495055	-0.48783	-0.391893	0.426754	0.481171	0.530662	0.515314	0.495386	-0.509752	-0.509856	0.457683	-0.37907	0.463684	-0.505078	0.413161	-0.467158	-0.538686	0.546637	0.557106	-0.464051	0.530016	0.413273	-0.529235	0.464196	0.479838	-0.501981	0.49729	-0.467826	0.430787	0.530716
0.708974	-0.469335	0.45392	-0.42386	-0.560509	0.510584	0.479623	0.534055	0.360902	0.501495	-0.564263	-0.574089	0.485349	-0.203175	0.504347	-0.44585	0.478206	-0.443851	-0.455652	0.451193	0.542337	-0.508844	0.558737	0.402332	-0.467141	0.449164	0.470364	-0.487165	0.460877	-0.439084	0.398244	0.542104
0.801678	-0.420831	0.455841	-0.527313	-0.524567	0.464403	0.475411	0.499797	0.508138	0.438183	-0.496837	-0.49124	0.425943	-0.175346	0.436264	-0.439489	0.52236	-0.408426	-0.438145	0.481544	0.410862	-0.51318	0.514702	0.421904	-0.470541	0.46093	0.379981	-0.475536	0.462385	-0.38761	0.474487	0.432358
0.132854	-0.550916	0.366705	-0.43021	-0.412154	0.552716	0.373857	0.471056	0.682235	0.449684	-0.445189	-0.396812	0.524479	-0.383716	0.386628	-0.518669	0.486734	-0.46044	-0.44726	0.40378	0.456507	-0.469037	0.485293	0.513637	-0.502921	0.508595	0.452888	-0.40445	0.454916	-0.479126	0.519276	0.489384
0.513922	-0.432568	0.488761	-0.500993	-0.435101	0.499672	0.532382	0.49599	0.479236	0.445768	-0.452695	-0.540833	0.448363	-0.542751	0.454916	-0.380252	0.488147	-0.462459	-0.521322	0.40711	0.489543	-0.480279	0.401062	0.473974	-0.489406	0.471568	0.505581	-0.499611	0.469193	-0.497656	0.37391	0.481518
0.550986	-0.493282	0.485675	-0.488459	-0.42769	0.358478	0.407013	0.45427	0.416133	0.515275	-0.505507	-0.482763	0.506259	-0.371106	0.423033	-0.514955	0.526733	-0.446914	-0.471162	0.498586	0.546803	-0.535116	0.495268	0.395234	-0.489224	0.478435	0.494764	-0.463282	0.37651	-0.500951	0.459926	0.504956
-0.0605074	-0.420843	0.497638	-0.492254	-0.494375	0.399371	0.520048	0.569728	0.484773	0.533206	-0.496959	-0.55635	0.464272	-0.430536	0.45191	-0.444952	0.427466	-0.411868	-0.473767	0.504636	0.48932	-0.528311	0.473516	0.440883	-0.448351	0.489156	0.436952	-0.502516	0.506497	-0.479175	0.389695	0.482524
0.46969	-0.53035	0.452028	-0.405634	-0.46631	0.396192	0.483736	0.476243	0.031197	0.505897	-0.47064	-0.5262	0.496844	-0.67325	0.483323	-0.484181	0.461558	-0.449059	-0.420609	0.378424	0.466884	-0.514848	0.360115	0.476272	-0.495297	0.458643	0.481083	-0.448752	0.341474	-0.420455	0.476399	0.44555
0.619144	-0.510282	0.432299	-0.519029	-0.486992	0.460006	0.530693	0.397975	0.526189	0.43713	-0.459988	-0.478965	0.519977	-0.466732	0.441006	-0.49726	0.49388	-0.384138	-0.431837	0.51833	0.430535	-0.461455	0.549275	0.498637	-0.494073	0.534577	0.426112	-0.411063	0.505477	-0.528659	0.396959	0.403015
-0.175896	-0.56523	0.415038	-0.471475	-0.432523	0.447292	0.516409	0.424164	0.290044	0.4551	-0.413463	-0.449502	0.519613	-0.681596	0.506678	-0.533764	0.496868	-0.523062	-0.467806	0.400541	0.517974	-0.369967	0.449589	0.432475	-0.457509	0.5483	0.437221	-0.528548	0.46501	-0.445574	0.45663	0.407332
0.0430068	-0.551398	0.466422	-0.459031	-0.34012	0.438672	0.511676	0.500246	0.253084	0.449644	-0.517249	-0.484315	0.48928	-0.697423	0.414527	-0.521544	0.470331	-0.470418	-0.505677	0.478376	0.507918	-0.438189	0.506791	0.506697	-0.514876	0.541963	0.520339	-0.55038	0.508969	-0.506011	0.503452	0.440405
0.727426	-0.534089	0.484054	-0.492554	-0.385894	0.478253	0.490086	0.549639	0.443835	0.514585	-0.505619	-0.391655	0.471001	-0.181849	0.453383	-0.549565	0.42853	-0.514566	-0.444113	0.487106	0.523968	-0.493259	0.520801	0.48706	-0.51887	0.458808	0.511833	-0.511338	0.378198	-0.492329	0.490078	0.42758
-0.275835	-0.550972	0.446615	-0.457971	-0.453197	0.494742	0.50685	0.425376	0.296391	0.465447	-0.532907	-0.487999	0.535888	-0.658918	0.420488	-0.535886	0.423342	-0.435167	-0.468541	0.455432	0.470922	-0.49444	0.48261	0.448781	-0.419528	0.518225	0.475571	-0.562193	0.523544	-0.555925	0.455439	0.53273
0.133316	-0.531312	0.499781	-0.457401	-0.439854	0.54715	0.511765	0.521674	0.253725	0.392489	-0.382259	-0.426835	0.488607	-0.636425	0.474355	-0.475691	0.475917	-0.461899	-0.464208	0.485858	0.487191	-0.550866	0.466197	0.509771	-0.471764	0.512679	0.489943	-0.479943	0.431843	-0.443276	0.42706	0.490244
0.65162	-0.350391	0.346999	-0.442931	-0.44337	0.522508	0.393148	0.538023	0.60304	0.418533	-0.4157	-0.407219	0.489864	-0.517982	0.424659	-0.481057	0.541137	-0.369732	-0.426577	0.503439	0.503177	-0.520543	0.468089	0.433858	-0.404581	0.445981	0.451768	-0.439678	0.487551	-0.493238	0.427304	0.487069
0.25157	-0.468293	0.432877	-0.378642	-0.413443	0.38222	0.412757	0.47134	0.284038	0.558965	-0.408968	-0.510195	0.434756	-0.480439	0.477348	-0.403848	0.507477	-0.427337	-0.457446	0.498872	0.466163	-0.49624	0.526431	0.444864	-0.462435	0.500225	0.516734	-0.540884	0.432438	-0.469073	0.494391	0.553001
0.789265	-0.426066	0.477695	-0.544686	-0.488023	0.403917	0.52971	0.496743	0.551187	0.466265	-0.383289	-0.416055	0.441154	-0.4588	0.502746	-0.503602	0.420516	-0.492615	-0.440329	0.486996	0.445376	-0.424693	0.502242	0.47699	-0.543568	0.456945	0.468719	-0.507695	0.395015	-0.546587	0.497943	0.377631
0.593805	-0.499679	0.506847	-0.488148	-0.528191	0.466368	0.454501	0.431347	0.483142	0.550975	-0.364702	-0.475856	0.44048	-0.436568	0.530529	-0.530701	0.48959	-0.489905	-0.516767	0.458549	0.487366	-0.478615	0.475295	0.404695	-0.45068	0.421741	0.473082	-0.54175	0.451571	-0.539169	0.467347	0.403078
0.699481	-0.519981	0.429889	-0.488778	-0.479115	0.486348	0.502113	0.493358	0.41011	0.525525	-0.453244	-0.508652	0.509552	-0.379541	0.491594	-0.526044	0.44525	-0.491727	-0.475759	0.504612	0.559794	-0.426014	0.509228	0.466218	-0.552326	0.504483	0.515294	-0.488853	0.446211	-0.524594	0.451193	0.506264
0.783588	-0.334917	0.417839	-0.535845	-0.439961	0.4671	0.489254	0.521603	0.639733	0.372146	-0.463513	-0.508707	0.441342	-0.551514	0.41989	-0.432967	0.363723	-0.476416	-0.496494	0.406551	0.397867	-0.482057	0.492013	0.500809	-0.413373	0.443468	0.376985	-0.411089	0.434666	-0.501639	0.403334	0.498901
0.641235	-0.474853	0.536562	-0.528942	-0.502212	0.310711	0.430351	0.486442	0.345975	0.479865	-0.418097	-0.466089	0.548486	-0.509196	0.55018	-0.428087	0.528255	-0.442782	-0.52802	0.465624	0.499022	-0.496977	0.444318	0.536651	-0.391434	0.464967	0.468072	-0.439495	0.485327	-0.51917	0.454555	0.48748
0.81659	-0.389881	0.542894	-0.417943	-0.473867	0.450043	0.46101	0.406399	0.485244	0.423884	-0.4466	-0.448789	0.464159	-0.675306	0.508032	-0.511727	0.408917	-0.469575	-0.430508	0.484097	0.430513	-0.495959	0.490067	0.53363	-0.402406	0.483841	0.445788	-0.456937	0.446128	-0.53026	0.520026	0.445375
-0.593241	-0.576746	0.425904	-0.479437	-0.506255	0.437896	0.344818	0.457382	0.253761	0.50681	-0.404972	-0.468578	0.436452	-0.563599	0.402716	-0.500517	0.468	-0.383116	-0.440042	0.463727	0.442961	-0.459965	0.419216	0.448277	-0.54331	0.507197	0.471512	-0.48925	0.432658	-0.413421	0.344402	0.482219
0.255085	-0.564405	0.454129	-0.498153	-0.448323	0.285635	0.55489	0.426735	0.578203	0.572081	-0.356083	-0.566879	0.470524	-0.643337	0.432661	-0.466584	0.505909	-0.5661	-0.448319	0.387456	0.448082	-0.517417	0.431432	0.398533	-0.548908	0.527846	0.398828	-0.533487	0.461901	-0.495288	0.355041	0.525067
0.839956	-0.377289	0.473573	-0.529315	-0.400418	0.549257	0.492441	0.438028	0.373414	0.445576	-0.421824	-0.368997	0.472659	-0.470036	0.56812	-0.54338	0.479888	-0.546437	-0.551949	0.413072	0.446386	-0.42349	0.473602	0.426978	-0.476174	0.430824	0.412024	-0.490014	0.556229	-0.435226	0.495701	0.522344
0.756289	-0.475797	0.558705	-0.470301	-0.39627	0.404671	0.47159	0.461247	0.561046	0.456922	-0.547876	-0.583448	0.458006	-0.606401	0.450697	-0.511915	0.459625	-0.418966	-0.480329	0.565412	0.436137	-0.482305	0.477824	0.421873	-0.489091	0.46303	0.483142	-0.435393	0.49186	-0.497124	0.474708	0.398273
-0.161595	-0.512801	0.496621	-0.561098	-0.560229	0.545388	0.394281	0.509929	0.533606	0.442861	-0.408321	-0.434401	0.513943	-0.502642	0.462553	-0.525827	0.50231	-0.461901	-0.442156	0.453817	0.481121	-0.49314	0.452319	0.423816	-0.379966	0.528981	0.444629	-0.42366	0.431958	-0.464406	0.456252	0.477125
-0.0575138	-0.482989	0.313124	-0.283003	-0.453644	0.341302	0.316164	0.460028	0.510645	0.362597	-0.360188	-0.201033	0.317255	-0.256972	0.47421	-0.290679	0.294886	-0.153179	-0.458051	0.435654	0.398337	-0.40791	0.427833	0.485774	-0.417329	0.435716	0.28177	-0.392193	0.362154	-0.40562	0.455389	0.375831
0.695499	-0.440527	0.419048	-0.442379	-0.484089	0.523715	0.49392	0.428188	0.216714	0.448953	-0.519604	-0.388781	0.438783	-0.255463	0.425046	-0.448646	0.469895	-0.480601	-0.46868	0.436575	0.416882	-0.505905	0.46175	0.493675	-0.50223	0.479273	0.487062	-0.462494	0.438273	-0.46248	0.510397	0.421102
-0.0134155	-0.378914	0.448042	-0.470001	-0.428484	0.452064	0.447689	0.315555	0.0530086	0.345135	-0.311497	-0.429856	0.42436	-0.110486	0.349062	-0.400973	0.368948	-0.3784	-0.464217	0.418388	0.426409	-0.344847	0.441368	0.40479	-0.388144	0.492898	0.41463	-0.42796	0.321297	-0.348642	0.432874	0.395555
0.0380674	-0.110875	0.437123	-0.380212	-0.395289	0.480292	0.359824	0.0130522	0.893577	0.348526	-0.356679	-0.521611	0.332617	0.0400686	0.226396	-0.443349	0.30729	-0.433871	-0.27944	0.256372	0.446281	-0.372926	0.406722	0.351746	-0.280833	0.461821	0.433935	-0.521258	0.298355	-0.385532	0.520686	0.405695
0.842848	-0.520405	0.434776	-0.47535	-0.5091	0.438603	0.429212	0.473005	0.590293	0.437536	-0.47298	-0.492484	0.436233	-0.267272	0.477168	-0.510402	0.388395	-0.419042	-0.536596	0.446953	0.459714	-0.53119	0.471012	0.48318	-0.507956	0.438854	0.423259	-0.517587	0.487645	-0.430697	0.450458	0.484843
0.432884	-0.58592	0.461498	-0.46674	-0.38484	0.385953	0.476591	0.383491	0.466975	0.511419	-0.538357	-0.373827	0.461804	-0.393138	0.536404	-0.424017	0.557333	-0.400322	-0.544406	0.474947	0.481612	-0.506328	0.476	0.427424	-0.491797	0.505704	0.407645	-0.466635	0.472387	-0.471139	0.540094	0.497687
-0.0014187	-0.389558	0.365566	-0.4221	-0.466823	0.409339	0.330122	0.365009	0.311884	0.329744	-0.490042	-0.367406	0.443475	-0.754122	0.413084	-0.407318	0.524395	-0.423288	-0.399097	0.3209	0.345806	-0.502606	0.443626	0.291695	-0.37402	0.343288	0.426857	-0.390924	0.454812	-0.437475	0.363626	0.380695
0.374733	-0.517565	0.479564	-0.466594	-0.414539	0.488701	0.48338	0.489573	0.397686	0.462557	-0.529334	-0.310561	0.460094	-0.344565	0.511836	-0.506832	0.453026	-0.48456	-0.497205	0.549583	0.407987	-0.461834	0.414314	0.426191	-0.53704	0.452305	0.48615	-0.400916	0.556758	-0.530164	0.55039	0.470517
0.82	-0.42952	0.456217	-0.531371	-0.46904	0.552065	0.440787	0.471535	0.24736	0.468601	-0.408446	-0.521412	0.492343	-0.613408	0.54352	-0.428598	0.426592	-0.398753	-0.452399	0.478917	0.464489	-0.540791	0.413583	0.533366	-0.40481	0.527202	0.394995	-0.421589	0.472806	-0.501404	0.502538	0.540618
0.367637	-0.407468	0.432878	-0.46258	-0.407411	0.398199	0.414937	0.39207	0.549397	0.422227	-0.533308	-0.525542	0.4279	-0.397656	0.386543	-0.488854	0.402391	-0.444371	-0.478786	0.409009	0.516978	-0.44252	0.432155	0.537174	-0.416758	0.471416	0.469659	-0.522107	0.352362	-0.525057	0.495109	0.428258
0.288012	-0.496694	0.498451	-0.398765	-0.470504	0.458884	0.467419	0.449986	0.481006	0.481694	-0.540695	-0.460102	0.425782	-0.196301	0.457649	-0.511005	0.558762	-0.489844	-0.528664	0.519621	0.536419	-0.472883	0.51415	0.436046	-0.421565	0.521612	0.44255	-0.489885	0.461848	-0.527732	0.470152	0.505199
0.241858	-0.471816	0.467876	-0.467881	-0.467485	0.386491	0.46674	0.42342	0.230735	0.523202	-0.518556	-0.43938	0.532326	-0.467182	0.533593	-0.537002	0.45714	-0.461119	-0.4611	0.364843	0.525408	-0.491317	0.499424	0.504834	-0.553645	0.429816	0.509734	-0.530352	0.420791	-0.42802	0.40123	0.507242
0.547104	-0.519886	0.439025	-0.465188	-0.432404	0.427495	0.451081	0.456056	0.413124	0.518128	-0.412938	-0.493499	0.473893	-0.277364	0.53576	-0.536662	0.554556	-0.507241	-0.48706	0.536112	0.493913	-0.522179	0.539989	0.516143	-0.525586	0.479729	0.490782	-0.451823	0.524305	-0.497436	0.506855	0.478887
0.776007	-0.475884	0.529562	-0.513706	-0.465916	0.47147	0.498922	0.442355	0.660618	0.54381	-0.52487	-0.557344	0.500735	-0.245708	0.458196	-0.475762	0.442792	-0.348498	-0.484242	0.449505	0.520268	-0.458712	0.548544	0.506751	-0.435753	0.470765	0.480061	-0.48125	0.388203	-0.472612	0.449571	0.449733
0.801367	-0.491589	0.506813	-0.500121	-0.456773	0.457646	0.462223	0.461607	0.23418	0.529288	-0.400958	-0.479176	0.466086	-0.389693	0.478573	-0.466862	0.52797	-0.365428	-0.534465	0.421563	0.456966	-0.552275	0.465012	0.449305	-0.536961	0.488032	0.456367	-0.504646	0.402949	-0.532906	0.476391	0.467273
0.541496	-0.35907	0.45516	-0.469266	-0.483701	0.52717	0.432046	0.565357	0.140048	0.423918	-0.34001	-0.488049	0.453659	-0.229428	0.398137	-0.480483	0.484303	-0.451792	-0.437387	0.549616	0.45661	-0.518967	0.442031	0.548566	-0.438965	0.450227	0.467036	-0.527998	0.41864	-0.453033	0.39228	0.549649
0.668665	-0.442375	0.500735	-0.427277	-0.531544	0.361184	0.481744	0.491526	0.294685	0.495151	-0.512312	-0.495133	0.464703	-0.502043	0.451237	-0.497258	0.524518	-0.45336	-0.530977	0.481807	0.535115	-0.491945	0.534065	0.398508	-0.486194	0.502262	0.453087	-0.513877	0.52723	-0.509777	0.531106	0.424924
0.42708	-0.497894	0.480402	-0.555767	-0.382859	0.496173	0.504931	0.497964	0.229618	0.410357	-0.505482	-0.443078	0.468265	-0.650005	0.452388	-0.521486	0.489993	-0.479933	-0.510314	0.389575	0.518768	-0.521345	0.518636	0.416259	-0.434249	0.477146	0.421175	-0.451328	0.515187	-0.493848	0.498551	0.425162
0.0326877	-0.455708	0.464989	-0.375593	-0.381733	0.520312	0.528424	0.499794	0.493467	0.509593	-0.44788	-0.561131	0.472637	-0.486379	0.426158	-0.461776	0.515887	-0.461557	-0.417465	0.416975	0.422167	-0.440177	0.489976	0.465046	-0.407755	0.538687	0.451423	-0.553067	0.53181	-0.507802	0.518656	0.395944
0.711464	-0.417398	0.448366	-0.45983	-0.400987	0.446981	0.422175	0.384084	0.537436	0.473689	-0.464665	-0.457354	0.482871	-0.3204	0.449397	-0.53976	0.456779	-0.441529	-0.474711	0.4364	0.457476	-0.449337	0.51803	0.496173	-0.505895	0.430485	0.464681	-0.470418	0.439257	-0.535092	0.555256	0.463
0.683889	-0.477962	0.51127	-0.549621	-0.360441	0.547489	0.435228	0.428202	0.492787	0.510437	-0.465935	-0.370493	0.539263	-0.503783	0.457955	-0.439817	0.492838	-0.390919	-0.450857	0.467909	0.528392	-0.483531	0.502611	0.43066	-0.470547	0.496076	0.360541	-0.464477	0.466805	-0.492471	0.491915	0.451549
0.44465	-0.437832	0.475023	-0.427355	-0.41827	0.514541	0.440441	0.491441	0.396205	0.446406	-0.512914	-0.557191	0.472424	-0.596004	0.482608	-0.445857	0.399715	-0.497133	-0.51834	0.517326	0.421049	-0.428746	0.513649	0.451326	-0.459058	0.396245	0.449162	-0.479894	0.485919	-0.509108	0.388581	0.4669
0.774233	-0.374281	0.448082	-0.425127	-0.5003	0.457443	0.44809	0.448856	0.640669	0.447343	-0.449992	-0.476509	0.511226	-0.344593	0.411248	-0.50356	0.431955	-0.508947	-0.424142	0.515829	0.508495	-0.447703	0.486024	0.418092	-0.506599	0.439786	0.464507	-0.506741	0.496233	-0.46272	0.386018	0.44889
0.0216162	-0.522056	0.474323	-0.49744	-0.553595	0.389076	0.363127	0.478029	0.367537	0.470604	-0.496233	-0.434551	0.548421	-0.213433	0.475881	-0.437667	0.492663	-0.487215	-0.513379	0.523408	0.465962	-0.505894	0.544735	0.519622	-0.477308	0.435851	0.475015	-0.514492	0.498906	-0.506137	0.543554	0.456373
0.654929	-0.475786	0.476037	-0.457883	-0.403623	0.500097	0.517703	0.488641	0.363288	0.490374	-0.389303	-0.467134	0.387745	-0.668626	0.425256	-0.432378	0.460352	-0.409102	-0.4262	0.551154	0.474129	-0.435175	0.413365	0.479043	-0.476004	0.541336	0.440398	-0.541152	0.489532	-0.544431	0.454143	0.383669
0.313175	-0.479476	0.414167	-0.423985	-0.448168	0.312544	0.469132	0.443764	0.364195	0.462048	-0.467416	-0.501723	0.472939	-0.464793	0.525331	-0.414751	0.548406	-0.496199	-0.515174	0.452737	0.468835	-0.548257	0.50475	0.524592	-0.473308	0.452461	0.512195	-0.519	0.468671	-0.540719	0.443592	0.440038
0.868864	-0.455007	0.465502	-0.492402	-0.420337	0.516797	0.434231	0.488969	0.531337	0.395717	-0.427432	-0.446936	0.47458	-0.489509	0.504179	-0.451152	0.46965	-0.492234	-0.435407	0.412893	0.451831	-0.48478	0.434227	0.491216	-0.438562	0.530588	0.435822	-0.396007	0.520891	-0.519138	0.436157	0.376694
-0.00809758	-0.564719	0.430525	-0.349968	-0.487262	0.297273	0.399159	0.334903	0.324027	0.465208	-0.46255	-0.525269	0.416358	-0.695397	0.347003	-0.486814	0.446717	-0.410328	-0.521102	0.368306	0.490168	-0.535039	0.476463	0.386788	-0.491107	0.431686	0.414659	-0.46093	0.459838	-0.376333	0.386962	0.549419
0.510065	-0.39097	0.388221	-0.482821	-0.481177	0.471761	0.400118	0.343805	0.388895	0.558678	-0.498151	-0.455802	0.510537	-0.376056	0.456097	-0.502365	0.471759	-0.549091	-0.449813	0.499763	0.482821	-0.506386	0.449647	0.518538	-0.454854	0.502375	0.560907	-0.448487	0.498442	-0.541141	0.511633	0.469514
-0.24328	-0.442442	0.409727	-0.493632	-0.310216	0.551829	0.470605	0.578252	0.655609	0.424714	-0.535772	-0.519984	0.555912	-0.562223	0.443713	-0.512353	0.451008	-0.523151	-0.541816	0.432109	0.495147	-0.446875	0.505227	0.541895	-0.472406	0.469163	0.442123	-0.499387	0.578567	-0.452784	0.415574	0.504539
0.216348	-0.474676	0.524513	-0.525623	-0.339582	0.467746	0.482062	0.538985	0.190555	0.462503	-0.468137	-0.373719	0.441348	-0.400671	0.417178	-0.536498	0.513252	-0.548118	-0.547956	0.542488	0.495484	-0.500855	0.47649	0.459271	-0.48538	0.453863	0.42212	-0.493321	0.480913	-0.489243	0.389963	0.495723
0.0390377	-0.381444	0.459857	-0.307035	-0.464389	0.401292	0.506036	0.327858	0.743362	0.43981	-0.447537	-0.567346	0.50861	0.0226141	0.365975	-0.481207	0.546206	-0.507112	-0.52047	0.421893	0.549228	-0.416818	0.546201	0.479774	-0.368101	0.462249	0.420811	-0.528993	0.34589	-0.432851	0.289752	0.486381
0.585107	-0.415918	0.424552	-0.342951	-0.468277	0.474691	0.424487	0.499076	0.46829	0.480215	-0.505138	-0.437054	0.45064	-0.422117	0.481808	-0.501634	0.539853	-0.511348	-0.489386	0.433794	0.48039	-0.447462	0.425541	0.384204	-0.447616	0.496928	0.47122	-0.401253	0.48386	-0.532154	0.469842	0.45369
0.633669	-0.528099	0.462989	-0.426232	-0.499881	0.430346	0.432763	0.378129	0.313761	0.518351	-0.444212	-0.451573	0.500877	-0.305065	0.484767	-0.47087	0.473307	-0.465912	-0.52596	0.491124	0.470795	-0.458371	0.509779	0.475821	-0.50724	0.447659	0.515095	-0.474934	0.444022	-0.448877	0.419791	0.398757
0.60568	-0.441595	0.543574	-0.525816	-0.511632	0.388086	0.469832	0.463865	0.300217	0.542618	-0.535781	-0.450234	0.510896	-0.288866	0.579281	-0.515366	0.50428	-0.446372	-0.509672	0.401463	0.470933	-0.434613	0.457245	0.454416	-0.468788	0.398047	0.508714	-0.571331	0.537788	-0.55657	0.502485	0.468329
0.540421	-0.507251	0.401323	-0.431504	-0.398316	0.523194	0.538467	0.55284	0.353373	0.362008	-0.465715	-0.503375	0.452279	-0.63076	0.48918	-0.462948	0.485472	-0.505093	-0.54414	0.474903	0.435709	-0.48413	0.48583	0.471275	-0.467862	0.444326	0.461433	-0.47673	0.459094	-0.483844	0.513553	0.490275
0.626608	-0.496648	0.509312	-0.464468	-0.511088	0.376474	0.500839	0.515205	0.318232	0.484504	-0.372378	-0.354652	0.475319	-0.498695	0.486459	-0.499315	0.458884	-0.502033	-0.54197	0.476605	0.472433	-0.550164	0.483397	0.507263	-0.488563	0.505344	0.447378	-0.439532	0.465222	-0.458586	0.414794	0.449788
0.522714	-0.444461	0.501375	-0.48322	-0.465412	0.543818	0.519825	0.506375	0.315415	0.500158	-0.501635	-0.33062	0.42177	-0.483701	0.45956	-0.476398	0.492054	-0.512353	-0.543509	0.514772	0.515668	-0.354168	0.402959	0.454295	-0.441281	0.471484	0.422361	-0.460233	0.41894	-0.487392	0.501023	0.448496
0.239246	-0.543881	0.493756	-0.437225	-0.414668	0.482047	0.562248	0.509102	0.156454	0.469209	-0.466235	-0.527361	0.502166	-0.0996197	0.394435	-0.488805	0.501807	-0.501747	-0.488138	0.491052	0.390432	-0.492007	0.521543	0.434238	-0.445204	0.391074	0.463518	-0.445224	0.371514	-0.533066	0.534391	0.465837
0.0716693	-0.293887	0.508909	-0.413617	-0.424374	0.371741	0.384984	0.415648	0.583962	0.426291	-0.496723	-0.506432	0.464005	-0.352799	0.437419	-0.397243	0.458491	-0.459096	-0.522783	0.531341	0.527136	-0.43509	0.523687	0.464145	-0.547988	0.462642	0.505947	-0.397049	0.428411	-0.405326	0.472543	0.473258
0.170731	-0.342559	0.529658	-0.33828	-0.517449	0.485633	0.454808	0.504616	0.169821	0.552739	-0.515175	-0.370347	0.440519	0.0108228	0.543542	-0.461255	0.453238	-0.582991	-0.525781	0.49814	0.391714	-0.514695	0.45037	0.559108	-0.463572	0.417079	0.577153	-0.487136	0.355218	-0.492727	0.422415	0.498817
0.727253	-0.421612	0.516286	-0.559569	-0.40904	0.411678	0.449528	0.539807	0.536496	0.394195	-0.499531	-0.478078	0.456104	-0.477965	0.547365	-0.470789	0.536808	-0.491557	-0.448956	0.466501	0.505717	-0.518159	0.485939	0.487523	-0.505425	0.421244	0.506921	-0.502968	0.446337	-0.483527	0.501065	0.434823
0.218307	-0.455492	0.470514	-0.508546	-0.439133	0.533801	0.498967	0.441203	0.319077	0.449862	-0.498724	-0.556928	0.490559	-0.590266	0.384189	-0.419313	0.474027	-0.540096	-0.535911	0.520193	0.469056	-0.420564	0.5023	0.491213	-0.459118	0.514314	0.484886	-0.522275	0.439895	-0.476533	0.406238	0.38985
0.926923	-0.51754	0.436492	-0.38854	-0.390143	0.486669	0.443435	0.535661	0.231607	0.431437	-0.441293	-0.447285	0.423943	-0.284952	0.487472	-0.413038	0.475372	-0.498864	-0.416973	0.446065	0.504568	-0.495938	0.475845	0.544015	-0.484615	0.443245	0.402003	-0.441172	0.41022	-0.506315	0.482041	0.507298
0.6549	-0.518653	0.456189	-0.464767	-0.529845	0.510918	0.513551	0.50427	0.145933	0.452415	-0.447454	-0.499708	0.535363	-0.294885	0.468963	-0.519153	0.501618	-0.514953	-0.469626	0.464416	0.433674	-0.505935	0.444032	0.495754	-0.541567	0.532847	0.460869	-0.529258	0.453109	-0.52663	0.419339	0.416508
0.136006	-0.540385	0.420273	-0.521771	-0.417732	0.553223	0.436438	0.464022	0.315307	0.432405	-0.506607	-0.470126	0.456852	-0.479824	0.446847	-0.492246	0.475997	-0.48752	-0.475122	0.494029	0.477501	-0.518941	0.467243	0.467332	-0.475019	0.473909	0.513416	-0.505322	0.440478	-0.458203	0.467364	0.46141
0.657246	-0.519308	0.550046	-0.541473	-0.480479	0.472164	0.523446	0.463554	0.297266	0.425184	-0.449975	-0.439609	0.549836	-0.447408	0.468317	-0.433777	0.525748	-0.487338	-0.502762	0.435167	0.464451	-0.477534	0.456354	0.528429	-0.506926	0.508554	0.505271	-0.49683	0.387273	-0.495469	0.379338	0.518602
0.814878	-0.402957	0.544193	-0.449879	-0.440197	0.489469	0.445464	0.484548	0.36507	0.396936	-0.503345	-0.260738	0.498713	-0.500667	0.526518	-0.485112	0.523723	-0.472165	-0.438992	0.436219	0.465579	-0.507394	0.488651	0.554257	-0.565848	0.400387	0.416663	-0.475526	0.491503	-0.519095	0.50564	0.520855
0.495207	-0.450854	0.502643	-0.380266	-0.495667	0.358465	0.484382	0.477876	0.420153	0.493946	-0.506828	-0.519553	0.546678	-0.421981	0.450372	-0.458922	0.539118	-0.550693	-0.467813	0.531289	0.578101	-0.450196	0.440274	0.494776	-0.38305	0.503969	0.516759	-0.544822	0.490409	-0.547925	0.446922	0.440322
-0.0375522	-0.526614	0.507248	-0.476015	-0.475226	0.511095	0.443205	0.465325	0.40156	0.429135	-0.490551	-0.48859	0.447066	-0.610612	0.521505	-0.457855	0.502701	-0.447672	-0.524611	0.412917	0.427341	-0.538253	0.484802	0.422041	-0.459434	0.487906	0.434724	-0.468391	0.503477	-0.458918	0.395407	0.544365
0.394039	-0.374973	0.478784	-0.447276	-0.495714	0.343149	0.387362	0.50087	0.345904	0.473887	-0.398996	-0.363763	0.40873	-0.535024	0.504064	-0.454761	0.384818	-0.488756	-0.52919	0.47766	0.392653	-0.517345	0.510663	0.51504	-0.468034	0.442969	0.475592	-0.475552	0.519452	-0.401057	0.428468	0.442564
0.228868	-0.532829	0.474504	-0.363957	-0.519321	0.244113	0.527355	0.422048	0.518308	0.417525	-0.402762	-0.472412	0.387947	-0.301667	0.439044	-0.535569	0.405288	-0.441181	-0.492537	0.508964	0.489504	-0.434354	0.369733	0.522363	-0.483274	0.438026	0.514771	-0.49599	0.488314	-0.480646	0.538954	0.543231
0.641106	-0.454275	0.459109	-0.537979	-0.483551	0.334345	0.493485	0.427189	0.533824	0.499082	-0.515287	-0.36937	0.451525	-0.426016	0.482965	-0.464182	0.390678	-0.38277	-0.471726	0.432494	0.418029	-0.499348	0.501254	0.500609	-0.527521	0.542478	0.45823	-0.445203	0.511793	-0.442206	0.509464	0.413208
0.803136	-0.462721	0.520285	-0.506195	-0.562608	0.334442	0.54873	0.457544	0.563371	0.438597	-0.464393	-0.359498	0.455104	-0.598996	0.549509	-0.421489	0.426524	-0.434372	-0.49423	0.482718	0.430256	-0.459062	0.545308	0.428058	-0.462629	0.48109	0.496723	-0.463439	0.513455	-0.453863	0.424963	0.384065
0.311137	-0.45874	0.436396	-0.443795	-0.472489	0.431948	0.472024	0.493639	0.393908	0.447242	-0.421481	-0.429197	0.518169	-0.543395	0.498676	-0.484461	0.520538	-0.439224	-0.468832	0.457567	0.409712	-0.507062	0.499457	0.477125	-0.376237	0.437438	0.507495	-0.382698	0.512049	-0.481726	0.480351	0.478534
0.43237	-0.478936	0.459459	-0.463648	-0.430748	0.557526	0.555704	0.454137	0.335404	0.448003	-0.5237	-0.455328	0.472406	-0.128932	0.483518	-0.43701	0.482546	-0.425913	-0.449777	0.514354	0.444394	-0.47537	0.453037	0.464553	-0.478188	0.52026	0.457162	-0.538389	0.455366	-0.453052	0.504239	0.438036
0.709042	-0.504094	0.424828	-0.528833	-0.49885	0.446852	0.541498	0.513574	0.315272	0.530738	-0.463223	-0.419109	0.514894	-0.0973836	0.461006	-0.44961	0.453997	-0.443731	-0.475759	0.464196	0.478033	-0.455657	0.471834	0.517059	-0.517525	0.484596	0.505253	-0.411671	0.448066	-0.525729	0.532245	0.433887
0.0824214	-0.413063	0.338003	-0.449988	-0.428878	0.441862	0.392214	0.462137	0.484609	0.333169	-0.308229	-0.419033	0.48719	-0.0350762	0.439861	-0.404117	0.421082	-0.509729	-0.462236	0.52237	0.517247	-0.388926	0.539206	0.388483	-0.516471	0.514086	0.5547	-0.507563	0.45977	-0.416126	0.408554	0.522902
0.319486	-0.474776	0.445107	-0.503518	-0.458674	0.446298	0.427227	0.409659	0.616022	0.557589	-0.425858	-0.454552	0.474151	-0.391336	0.487267	-0.532451	0.517275	-0.409686	-0.557395	0.491709	0.450414	-0.448378	0.432222	0.475989	-0.476807	0.5064	0.519299	-0.449526	0.370457	-0.50998	0.409297	0.419033
0.496859	-0.36612	0.425854	-0.451428	-0.430566	0.353773	0.349524	0.489888	0.680778	0.404038	-0.478129	-0.395191	0.439544	-0.354887	0.495858	-0.425014	0.233125	-0.412888	-0.440379	0.35845	0.365661	-0.411402	0.421623	0.422499	-0.464768	0.510045	0.36296	-0.449681	0.406015	-0.377562	0.489789	0.465557
0.556617	-0.420131	0.481483	-0.548602	-0.540415	0.425584	0.548676	0.469315	0.389452	0.453354	-0.427268	-0.449636	0.443527	-0.527365	0.541485	-0.527691	0.523646	-0.40517	-0.481272	0.475894	0.436182	-0.452572	0.479879	0.461103	-0.499958	0.509908	0.454192	-0.46686	0.440175	-0.441476	0.386501	0.466767
0.680225	-0.399661	0.459769	-0.474629	-0.507409	0.466357	0.519445	0.478021	0.539295	0.497166	-0.486707	-0.459487	0.497908	-0.427162	0.526743	-0.47165	0.445493	-0.533723	-0.499706	0.50865	0.477012	-0.488279	0.489968	0.469061	-0.482789	0.532681	0.532458	-0.451396	0.506221	-0.426308	0.453323	0.534766
-0.370595	-0.401147	0.501173	-0.536627	-0.49089	0.233495	0.565746	0.57193	-0.255554	0.465718	-0.456423	-0.505316	0.512276	0.130519	0.363423	-0.486653	0.445449	-0.493878	-0.563281	0.493022	0.525963	-0.551022	0.442676	0.562305	-0.391911	0.530392	0.443019	-0.354682	0.602161	-0.491343	0.285967	0.339521
0.642826	-0.439819	0.503451	-0.470684	-0.415456	0.327345	0.441588	0.450347	0.279074	0.502075	-0.428304	-0.477027	0.538003	-0.100841	0.474675	-0.535698	0.467438	-0.390679	-0.468759	0.406659	0.500908	-0.435107	0.486604	0.438668	-0.440194	0.45117	0.510097	-0.531322	0.460108	-0.427797	0.432458	0.448654
0.717278	-0.410414	0.517394	-0.401296	-0.439439	0.441984	0.415017	0.418323	0.671234	0.509973	-0.462786	-0.483184	0.445753	-0.0398138	0.4234	-0.500781	0.457735	-0.554835	-0.383943	0.481145	0.402463	-0.463213	0.439239	0.465336	-0.489119	0.52413	0.471646	-0.4461	0.471657	-0.503883	0.453988	0.461784
0.625902	-0.393341	0.429472	-0.423028	-0.42362	0.50243	0.466886	0.46228	0.469179	0.475208	-0.51394	-0.416102	0.434154	-0.199175	0.456493	-0.487924	0.504716	-0.475359	-0.456801	0.501111	0.35958	-0.503387	0.508497	0.46433	-0.455712	0.435164	0.522927	-0.333991	0.45557	-0.471041	0.519655	0.511727
0.64016	-0.452524	0.444061	-0.398514	-0.395339	0.472866	0.484161	0.464795	0.593965	0.484358	-0.471072	-0.460248	0.453057	-0.411911	0.483776	-0.490258	0.410652	-0.505867	-0.526692	0.535846	0.531483	-0.482439	0.484628	0.385096	-0.500241	0.408557	0.502956	-0.46972	0.44986	-0.407031	0.470292	0.490624
0.108251	-0.454581	0.418013	-0.46959	-0.490792	0.487047	0.468797	0.54831	0.510507	0.475054	-0.472909	-0.490423	0.445989	-0.543412	0.510125	-0.392472	0.47407	-0.521207	-0.472488	0.467481	0.46258	-0.464623	0.510368	0.506491	-0.483337	0.444563	0.494722	-0.543198	0.495286	-0.548437	0.535358	0.427853
0.0716044	-0.490157	0.466568	-0.416024	-0.52608	0.248705	0.578178	0.356573	0.650932	0.5071	-0.404167	-0.537463	0.454143	-0.586177	0.443893	-0.513794	0.448123	-0.486019	-0.428534	0.472202	0.519653	-0.555986	0.535263	0.367138	-0.516791	0.420101	0.437815	-0.46749	0.378783	-0.51589	0.31178	0.46253
0.688875	-0.400504	0.507956	-0.461007	-0.451265	0.513871	0.410441	0.453547	0.510671	0.529154	-0.420442	-0.533591	0.407509	-0.195947	0.461961	-0.459562	0.443943	-0.413818	-0.494993	0.467284	0.425629	-0.508502	0.398054	0.508134	-0.416723	0.483624	0.358518	-0.515075	0.422101	-0.400655	0.337719	0.440625
0.49894	-0.496782	0.432967	-0.479917	-0.425375	0.50642	0.44066	0.507949	0.652841	0.474423	-0.429751	-0.447737	0.473152	-0.273204	0.401933	-0.488973	0.420894	-0.509366	-0.409937	0.478972	0.445185	-0.444408	0.458338	0.453953	-0.503024	0.421016	0.484946	-0.538447	0.440976	-0.414976	0.476557	0.469057
0.525726	-0.212086	0.375117	-0.537227	-0.562206	0.588086	0.47529	0.342445	0.803688	0.405643	-0.419782	-0.612163	0.382006	0.0997056	0.415918	-0.505557	0.472947	-0.535151	-0.437038	0.400361	0.578345	-0.353693	0.419043	0.455356	-0.511575	0.46252	0.412612	-0.509486	0.422808	-0.541687	0.415257	0.544012
0.503322	-0.47315	0.439836	-0.454083	-0.44355	0.472397	0.468627	0.415992	0.39086	0.456056	-0.413124	-0.499949	0.462712	-0.503725	0.418652	-0.531718	0.531883	-0.527494	-0.431614	0.511418	0.478137	-0.473927	0.409938	0.429978	-0.449687	0.439642	0.537247	-0.513874	0.473293	-0.463226	0.488041	0.438187
-0.752168	-0.361542	0.417919	-0.451319	-0.369193	0.442209	0.359393	0.508415	0.652857	0.347587	-0.385036	-0.356477	0.453465	-0.531197	0.366417	-0.550994	0.359251	-0.389831	-0.508932	0.474304	0.494601	-0.494745	0.457509	0.512522	-0.419887	0.497947	0.472275	-0.441913	0.583874	-0.480367	0.382344	0.465845
-0.639435	-0.351806	0.442304	-0.372127	-0.475949	0.427249	0.430332	0.406502	0.607262	0.533947	-0.45592	-0.469794	0.436596	-0.747184	0.387373	-0.35495	0.406283	-0.364968	-0.357045	0.462784	0.512455	-0.384149	0.380759	0.486658	-0.488436	0.42886	0.394228	-0.518195	0.504547	-0.442282	0.372755	0.510693
0.766096	-0.552303	0.465296	-0.451143	-0.544288	0.434481	0.539362	0.400879	0.255142	0.540022	-0.462496	-0.461106	0.453014	-0.367774	0.531289	-0.452074	0.479902	-0.46178	-0.475322	0.51646	0.472049	-0.457526	0.540139	0.44671	-0.512706	0.382899	0.424593	-0.442701	0.448534	-0.500122	0.555531	0.477311
0.678125	-0.43363	0.505987	-0.48622	-0.422894	0.31824	0.536475	0.461745	0.112194	0.502786	-0.420324	-0.44517	0.448038	-0.587937	0.490763	-0.488856	0.498478	-0.475548	-0.470208	0.502099	0.439519	-0.475247	0.467334	0.424822	-0.509024	0.458801	0.487292	-0.495057	0.519873	-0.454368	0.484602	0.354761
0.628383	-0.55286	0.515715	-0.451456	-0.304035	0.460717	0.419821	0.495184	0.51458	0.454784	-0.423201	-0.445414	0.448106	-0.557304	0.502973	-0.38913	0.383356	-0.424955	-0.512005	0.435438	0.458184	-0.526626	0.40318	0.497481	-0.476917	0.503289	0.421651	-0.413341	0.482917	-0.45514	0.365735	0.397759
0.758665	-0.460693	0.460168	-0.528222	-0.481341	0.472555	0.533995	0.477523	0.484653	0.477666	-0.423772	-0.460734	0.428818	-0.400927	0.523905	-0.452739	0.461696	-0.429543	-0.545593	0.466707	0.484035	-0.482549	0.517716	0.509222	-0.455173	0.491684	0.45537	-0.479886	0.46323	-0.499287	0.422775	0.498873
-0.712918	-0.4249	0.381405	-0.387081	-0.432073	0.541276	0.4755	0.359583	0.280339	0.447995	-0.554665	-0.473232	0.536742	-0.457328	0.452124	-0.473413	0.457192	-0.537656	-0.490567	0.521274	0.519309	-0.400413	0.519304	0.476771	-0.457878	0.415787	0.543609	-0.543321	0.519349	-0.482391	0.392046	0.509075
0.228705	-0.436371	0.527625	-0.45613	-0.475774	0.457892	0.507737	0.372662	0.523573	0.449713	-0.447639	-0.555256	0.496883	-0.598375	0.467817	-0.479251	0.478901	-0.497015	-0.444488	0.481925	0.477532	-0.494843	0.463224	0.52405	-0.532891	0.450613	0.42036	-0.481192	0.446114	-0.491079	0.43031	0.442064
0.127232	-0.463102	0.429236	-0.490456	-0.573625	0.37735	0.509111	0.395651	0.704245	0.406272	-0.452302	-0.328125	0.493497	-0.546851	0.442853	-0.508786	0.452906	-0.470113	-0.445655	0.459428	0.540992	-0.504107	0.461739	0.453537	-0.469671	0.528382	0.514251	-0.498671	0.415212	-0.477788	0.495309	0.524637
0.686793	-0.562616	0.503465	-0.474482	-0.304268	0.508925	0.550846	0.434193	0.276819	0.483818	-0.499864	-0.465751	0.448733	-0.473194	0.45148	-0.534694	0.447495	-0.48243	-0.541464	0.470101	0.477119	-0.441563	0.481039	0.484965	-0.512716	0.485411	0.468993	-0.518607	0.435296	-0.540309	0.407515	0.460391
0.451641	-0.413253	0.502719	-0.378017	-0.513142	0.48046	0.504177	0.548684	-0.0466826	0.502745	-0.42647	-0.494347	0.56796	-0.649849	0.540044	-0.405299	0.54327	-0.470962	-0.502958	0.366794	0.485825	-0.480632	0.479144	0.478395	-0.51472	0.358457	0.559464	-0.538395	0.500499	-0.502739	0.459173	0.472501
0.582018	-0.497745	0.445182	-0.451902	-0.554475	0.507237	0.433502	0.519417	0.302982	0.510611	-0.488825	-0.498887	0.440576	-0.355533	0.541906	-0.538361	0.506186	-0.384279	-0.465765	0.44945	0.505438	-0.54229	0.493081	0.42263	-0.444946	0.422316	0.499546	-0.44922	0.407504	-0.40795	0.453291	0.461433
0.63784	-0.461364	0.436226	-0.516523	-0.474923	0.507399	0.495678	0.517932	0.475543	0.479596	-0.421118	-0.462014	0.451724	-0.503074	0.426726	-0.42607	0.468552	-0.366508	-0.404632	0.403804	0.504912	-0.475292	0.483794	0.433517	-0.430757	0.464773	0.46933	-0.514759	0.519906	-0.469653	0.427072	0.433871
0.819303	-0.567855	0.47633	-0.441321	-0.501661	0.409651	0.479785	0.474447	0.167272	0.425643	-0.491145	-0.456458	0.429812	-0.666254	0.536618	-0.463663	0.424667	-0.534814	-0.493438	0.504966	0.523245	-0.499774	0.492619	0.426643	-0.423195	0.389629	0.413486	-0.402673	0.579952	-0.509157	0.378125	0.486443
0.72162	-0.405402	0.442827	-0.497549	-0.545282	0.497518	0.448414	0.417265	0.426138	0.398122	-0.439264	-0.49755	0.501343	-0.345646	0.399796	-0.453951	0.504591	-0.451119	-0.446748	0.444091	0.487637	-0.453911	0.520326	0.497171	-0.476587	0.432132	0.467001	-0.483443	0.407556	-0.493438	0.482338	0.411232
0.635049	-0.448512	0.49864	-0.491843	-0.332849	0.412051	0.54987	0.490877	0.409471	0.496824	-0.435468	-0.509777	0.507664	-0.427297	0.447177	-0.482107	0.44419	-0.500583	-0.540347	0.422775	0.442554	-0.371042	0.484355	0.462967	-0.455095	0.424843	0.363969	-0.485768	0.460059	-0.462705	0.459468	0.396342
0.45	-0.423143	0.4943	-0.418494	-0.478337	0.431986	0.537069	0.483746	0.671433	0.539426	-0.451198	-0.482509	0.436428	-0.297856	0.399136	-0.479658	0.479131	-0.506463	-0.376969	0.410004	0.452359	-0.438192	0.487023	0.390855	-0.52208	0.550958	0.483086	-0.506417	0.477501	-0.426101	0.470411	0.509842
0.42164	-0.488446	0.543323	-0.453069	-0.514372	0.501947	0.457084	0.465324	0.433413	0.485761	-0.502116	-0.490359	0.451915	-0.50815	0.518722	-0.494957	0.467503	-0.522282	-0.454354	0.40951	0.470283	-0.464022	0.495753	0.466603	-0.46139	0.481257	0.4519	-0.482139	0.478568	-0.443456	0.533762	0.437202
0.444628	-0.46201	0.496342	-0.458441	-0.491517	0.483908	0.423302	0.418701	0.303065	0.469659	-0.471682	-0.463915	0.480009	-0.512797	0.536474	-0.508059	0.43853	-0.459885	-0.549268	0.437258	0.498791	-0.427724	0.482878	0.507142	-0.501074	0.425989	0.489145	-0.423456	0.455356	-0.488443	0.44423	0.49545
0.703577	-0.471622	0.463473	-0.509731	-0.502252	0.553236	0.541497	0.405553	0.313411	0.396279	-0.485194	-0.492385	0.477169	-0.635903	0.480228	-0.516231	0.405496	-0.470144	-0.511193	0.538457	0.469036	-0.440009	0.471963	0.538458	-0.454117	0.451555	0.525094	-0.526185	0.450045	-0.497845	0.49171	0.426053
0.738275	-0.506827	0.497539	-0.37889	-0.538084	0.434658	0.526919	0.366674	0.506404	0.435173	-0.484268	-0.45936	0.503199	-0.523115	0.458989	-0.456783	0.422172	-0.491727	-0.482446	0.504486	0.436646	-0.53086	0.437888	0.490155	-0.457207	0.48201	0.505981	-0.473521	0.460488	-0.472614	0.375282	0.508912
0.155711	-0.422148	0.444735	-0.48015	-0.509032	0.451852	0.471114	0.563137	0.576774	0.462826	-0.495834	-0.407707	0.530623	-0.647812	0.526891	-0.466767	0.480925	-0.458255	-0.445495	0.421607	0.369072	-0.467563	0.504525	0.422616	-0.468215	0.519007	0.485286	-0.463308	0.542048	-0.502641	0.420594	0.520691
0.688424	-0.389719	0.505996	-0.320661	-0.509864	0.465658	0.532128	0.411367	0.721904	0.502378	-0.444748	-0.441491	0.547769	-0.0331841	0.487435	-0.532474	0.496727	-0.454631	-0.491946	0.530979	0.486183	-0.489618	0.475515	0.465681	-0.531354	0.439195	0.475194	-0.523733	0.421421	-0.485971	0.461359	0.546895
0.542058	-0.560192	0.429679	-0.45029	-0.441455	0.461321	0.52721	0.424653	0.490402	0.444237	-0.457158	-0.422686	0.461641	-0.540768	0.498266	-0.513297	0.418285	-0.476727	-0.468451	0.459538	0.424043	-0.445426	0.508395	0.503231	-0.40501	0.521946	0.423778	-0.533919	0.55629	-0.498702	0.448184	0.455394
-0.11233	-0.510506	0.51797	-0.469858	-0.490115	0.428618	0.502478	0.510115	0.445607	0.379872	-0.440658	-0.531292	0.529679	-0.478633	0.431509	-0.452961	0.468741	-0.391443	-0.473988	0.533231	0.469127	-0.434693	0.52799	0.52823	-0.480894	0.472047	0.498047	-0.54965	0.525485	-0.511433	0.540732	0.499615
0.654962	-0.457642	0.503928	-0.39053	-0.505166	0.392708	0.512595	0.557937	0.482646	0.498294	-0.422072	-0.501891	0.5297	-0.53548	0.46663	-0.520804	0.523153	-0.503491	-0.518112	0.538117	0.438658	-0.449753	0.46532	0.392308	-0.514261	0.435285	0.410556	-0.379029	0.540289	-0.494411	0.543654	0.413767
-0.579297	-0.465949	0.457587	-0.350736	-0.393714	0.503807	0.432226	0.25998	0.327317	0.394801	-0.34348	-0.380967	0.374789	-0.242742	0.355944	-0.427922	0.435759	-0.400964	-0.382101	0.349557	0.443718	-0.331146	0.370691	0.445968	-0.441811	0.361543	0.378689	-0.509347	0.342848	-0.48828	0.300381	0.42335
0.527173	-0.484153	0.527504	-0.471181	-0.494044	0.433151	0.507187	0.536149	0.167039	0.558095	-0.479035	-0.520247	0.499937	-0.400118	0.447355	-0.462336	0.547937	-0.418382	-0.502261	0.533363	0.462782	-0.56369	0.513404	0.470135	-0.539495	0.535074	0.496409	-0.576418	0.521073	-0.478294	0.3874	0.407756
0.835137	-0.418858	0.505281	-0.515285	-0.552491	0.509468	0.456435	0.550973	0.507921	0.514494	-0.499556	-0.513613	0.41528	-0.393691	0.458581	-0.469872	0.4472	-0.515844	-0.443191	0.483155	0.467159	-0.441912	0.457179	0.504178	-0.448537	0.388256	0.473998	-0.44812	0.536763	-0.494039	0.536136	0.485706
0.15409	-0.44071	0.439297	-0.430157	-0.405874	0.435183	0.538834	0.496401	0.193067	0.461026	-0.439235	-0.500757	0.500597	-0.525976	0.482027	-0.41382	0.53711	-0.501523	-0.502085	0.461199	0.505595	-0.444932	0.416663	0.388464	-0.522803	0.543491	0.426584	-0.49749	0.434781	-0.456276	0.482301	0.487233
0.684373	-0.503411	0.477688	-0.491435	-0.423745	0.502442	0.474909	0.490853	0.330574	0.43102	-0.359033	-0.370116	0.568638	-0.513707	0.455119	-0.490819	0.542166	-0.384206	-0.522848	0.545942	0.442312	-0.453856	0.479357	0.527167	-0.481904	0.456053	0.428445	-0.49062	0.430055	-0.489904	0.492796	0.552233
0.295376	-0.507755	0.472196	-0.536299	-0.513596	0.466232	0.475436	0.453275	0.16791	0.538292	-0.510779	-0.427773	0.474447	-0.457946	0.455935	-0.496288	0.434716	-0.441441	-0.573203	0.562345	0.446612	-0.468317	0.590239	0.331523	-0.460005	0.511149	0.374303	-0.521038	0.490586	-0.486028	0.368067	0.405318
-0.145363	-0.542868	0.576266	-0.430496	-0.453051	0.47752	0.562756	0.589883	-0.0477867	0.442097	-0.408461	-0.283752	0.452875	-0.274854	0.513092	-0.45512	0.556578	-0.510202	-0.514389	0.483316	0.488186	-0.546405	0.524625	0.54556	-0.535272	0.543527	0.446625	-0.403648	0.489969	-0.465304	0.551224	0.563442
0.516235	-0.363949	0.454609	-0.449398	-0.442918	0.44603	0.47935	0.372209	0.439065	0.45802	-0.433685	-0.409999	0.484663	-0.501686	0.435241	-0.503983	0.483131	-0.386538	-0.454268	0.535775	0.53011	-0.435042	0.442899	0.370307	-0.484872	0.517724	0.394479	-0.485478	0.502506	-0.483349	0.432298	0.518951
0.805839	-0.514832	0.426718	-0.426178	-0.4578	0.467805	0.433835	0.449688	0.549945	0.416006	-0.481537	-0.479037	0.446965	-0.370532	0.488816	-0.384389	0.462532	-0.411494	-0.49311	0.397723	0.458554	-0.497097	0.454918	0.391976	-0.426658	0.457132	0.426042	-0.495974	0.509481	-0.389736	0.458935	0.462635
0.45056	-0.550495	0.547796	-0.514076	-0.540094	0.530807	0.437156	0.53618	0.185653	0.425848	-0.49609	-0.460741	0.504507	-0.645625	0.509804	-0.419423	0.539178	-0.512094	-0.512984	0.510256	0.51691	-0.493484	0.454647	0.446789	-0.406695	0.510209	0.469751	-0.434636	0.501016	-0.526107	0.339374	0.484143
0.517132	-0.362875	0.469479	-0.500425	-0.408162	0.480613	0.462296	0.496834	0.24036	0.460622	-0.432896	-0.403294	0.505898	-0.434895	0.505943	-0.489341	0.464041	-0.526746	-0.459349	0.491069	0.463567	-0.43684	0.475769	0.413952	-0.46716	0.499629	0.526124	-0.470553	0.523974	-0.44465	0.471561	0.483212
0.291897	-0.470773	0.386596	-0.514253	-0.457282	0.413834	0.434673	0.542709	0.587236	0.419309	-0.423815	-0.491729	0.485662	-0.540502	0.444833	-0.438983	0.445894	-0.41208	-0.515862	0.477099	0.449196	-0.499375	0.478107	0.423548	-0.468009	0.430711	0.46312	-0.497096	0.495845	-0.452163	0.555654	0.42114
0.822271	-0.568213	0.398435	-0.50053	-0.385179	0.540125	0.439512	0.462969	0.703614	0.493304	-0.389212	-0.320659	0.466034	-0.482801	0.411282	-0.455103	0.485923	-0.457841	-0.464801	0.438746	0.326804	-0.514558	0.348968	0.523981	-0.54275	0.517106	0.402026	-0.45342	0.440096	-0.426302	0.469	0.528301
0.179984	-0.5364	0.485535	-0.499683	-0.462846	0.439695	0.453486	0.507952	0.339197	0.501875	-0.472361	-0.477665	0.514405	-0.243733	0.453725	-0.446223	0.388642	-0.532364	-0.537703	0.383784	0.487215	-0.558322	0.482241	0.511851	-0.432887	0.472161	0.452724	-0.505377	0.404415	-0.526051	0.483565	0.505041
0.744038	-0.385733	0.477537	-0.284418	-0.456075	0.439315	0.488547	0.425922	0.659542	0.348914	-0.446838	-0.565583	0.413952	0.185322	0.395124	-0.422856	0.439907	-0.535539	-0.350962	0.399874	0.448879	-0.457714	0.529769	0.409397	-0.426325	0.483655	0.440056	-0.411245	0.468566	-0.345157	0.460573	0.539607
0.720439	-0.464021	0.504887	-0.438578	-0.390644	0.360323	0.394151	0.485064	0.373834	0.469213	-0.488168	-0.487567	0.466117	-0.591445	0.505875	-0.45687	0.491821	-0.437448	-0.52056	0.474491	0.402145	-0.4536	0.476393	0.454768	-0.489493	0.435863	0.480286	-0.476229	0.386107	-0.449565	0.391505	0.401481
0.314659	-0.510185	0.409229	-0.540452	-0.402763	0.313529	0.461145	0.453588	0.3985	0.50111	-0.452156	-0.437745	0.433704	-0.528793	0.469705	-0.455208	0.462085	-0.379474	-0.500107	0.543252	0.475178	-0.503329	0.481095	0.510277	-0.50991	0.477204	0.433958	-0.439672	0.425768	-0.44503	0.456652	0.461212
0.774704	-0.543353	0.404395	-0.413328	-0.361209	0.498356	0.451818	0.477762	0.406368	0.514492	-0.438927	-0.489975	0.493771	-0.0904996	0.340617	-0.472365	0.509273	-0.484743	-0.424984	0.425308	0.532666	-0.443632	0.565976	0.349252	-0.422591	0.456977	0.427111	-0.398402	0.481069	-0.472735	0.530353	0.56471
0.723155	-0.471534	0.438501	-0.487217	-0.3673	0.472037	0.366537	0.515591	0.62842	0.420538	-0.45719	-0.435596	0.41904	-0.461085	0.51785	-0.437621	0.423187	-0.479143	-0.439296	0.462521	0.413064	-0.512441	0.477591	0.504852	-0.518206	0.423463	0.434983	-0.421544	0.424379	-0.501787	0.418211	0.49151
0.539264	-0.476015	0.42447	-0.507419	-0.530676	0.426313	0.438655	0.422962	0.461352	0.455336	-0.469644	-0.474082	0.437286	-0.391523	0.375751	-0.453514	0.52882	-0.480276	-0.543933	0.539145	0.497322	-0.445122	0.450417	0.460356	-0.488634	0.452528	0.435856	-0.513303	0.457057	-0.52366	0.363042	0.418664
-0.405274	-0.260534	0.299718	-0.386466	-0.196935	0.304375	0.235684	0.232355	0.635441	0.355125	-0.48558	-0.364425	0.351647	-0.773847	0.241922	-0.492099	0.395251	-0.417738	-0.361484	0.267609	0.259919	-0.283211	0.167104	0.276017	-0.448483	0.181025	0.296806	-0.209611	0.365765	-0.321864	0.408664	0.138874
0.560297	-0.421302	0.521231	-0.443973	-0.500061	0.42752	0.467434	0.399238	0.476796	0.398827	-0.477886	-0.47202	0.447298	-0.334542	0.455789	-0.447457	0.518877	-0.449942	-0.499503	0.4602	0.454429	-0.545936	0.513645	0.549847	-0.477008	0.487832	0.504192	-0.457241	0.49939	-0.5222	0.533359	0.467011
0.495535	-0.423563	0.544072	-0.496776	-0.447211	0.408397	0.53802	0.528402	0.406125	0.532998	-0.40781	-0.348814	0.49748	-0.492655	0.519994	-0.44904	0.506487	-0.444369	-0.44997	0.522324	0.506762	-0.502218	0.49449	0.442848	-0.405407	0.467263	0.482507	-0.504119	0.473338	-0.433987	0.373893	0.544508
0.831484	-0.398391	0.275577	-0.195126	-0.371644	0.360961	0.4422	0.347428	0.647974	0.406773	-0.299013	-0.435689	0.444258	-0.593577	0.317249	-0.458718	0.320339	-0.359795	-0.325483	0.374382	0.32523	-0.224091	0.333129	0.327683	-0.322296	0.408199	0.333452	-0.325333	0.334428	-0.443193	0.364292	0.253108
0.683968	-0.508675	0.486247	-0.519861	-0.432214	0.418327	0.472691	0.560861	0.50929	0.526715	-0.492464	-0.537205	0.480373	-0.294718	0.517537	-0.444808	0.455134	-0.473804	-0.52308	0.495169	0.493057	-0.531021	0.514116	0.444152	-0.511933	0.492784	0.479844	-0.529088	0.48315	-0.46529	0.522227	0.507924
-0.297592	-0.325122	0.517035	-0.51819	-0.446205	0.533671	0.415397	0.418542	0.280475	0.37665	-0.472611	-0.49876	0.404975	-0.627801	0.480024	-0.502258	0.413956	-0.436572	-0.373545	0.438331	0.46323	-0.470495	0.391251	0.405173	-0.513034	0.479792	0.320857	-0.490504	0.436439	-0.422811	0.490299	0.498951
0.618333	-0.523888	0.438259	-0.422062	-0.422507	0.444445	0.529003	0.440356	0.29235	0.470649	-0.438373	-0.415881	0.535053	-0.562537	0.445484	-0.539941	0.460362	-0.476224	-0.456398	0.449902	0.470894	-0.501247	0.506362	0.524782	-0.49922	0.514528	0.533261	-0.488633	0.49833	-0.532564	0.43063	0.43663
0.790087	-0.453032	0.406325	-0.524724	-0.35007	0.508323	0.562398	0.433179	0.27257	0.474014	-0.438849	-0.38716	0.417343	-0.591215	0.51386	-0.449991	0.456147	-0.456325	-0.478631	0.435645	0.568073	-0.481266	0.548302	0.558399	-0.496805	0.417644	0.535829	-0.398614	0.493698	-0.425025	0.509865	0.476823
0.40876	-0.485418	0.373665	-0.447553	-0.34462	0.307567	0.486748	0.43589	0.483587	0.424191	-0.436151	-0.460654	0.471007	-0.551572	0.292916	-0.399022	0.479528	-0.494851	-0.484866	0.422074	0.393673	-0.371013	0.462239	0.420359	-0.320041	0.440397	0.409808	-0.280116	0.37993	-0.331681	0.290619	0.409959
0.371035	-0.494932	0.50628	-0.481865	-0.411381	0.461127	0.53497	0.468703	0.324253	0.444182	-0.476325	-0.478015	0.485312	-0.564268	0.444093	-0.494731	0.458583	-0.533336	-0.504282	0.553164	0.439674	-0.466981	0.478616	0.434027	-0.465203	0.514269	0.410785	-0.465041	0.4954	-0.51052	0.44558	0.441549
0.776244	-0.43197	0.544424	-0.380198	-0.388442	0.453839	0.500299	0.431394	0.304006	0.543404	-0.435974	-0.502084	0.428212	-0.613792	0.488862	-0.500191	0.459982	-0.518666	-0.47009	0.468954	0.471819	-0.428789	0.515541	0.435656	-0.519796	0.458695	0.493946	-0.471609	0.435887	-0.48003	0.473892	0.383853
0.465067	-0.472774	0.49312	-0.482538	-0.493104	0.466932	0.476034	0.540033	0.24741	0.45103	-0.476649	-0.308969	0.441317	-0.312354	0.520045	-0.515069	0.503622	-0.445934	-0.473773	0.488951	0.488128	-0.548597	0.530909	0.533539	-0.480059	0.479334	0.452628	-0.478188	0.469152	-0.473814	0.526844	0.44309
-0.223514	-0.430107	0.430966	-0.441473	-0.491158	0.495395	0.399392	0.438737	0.435503	0.41609	-0.44684	-0.346394	0.365504	-0.534658	0.493284	-0.425826	0.448617	-0.374128	-0.374101	0.42067	0.509359	-0.480225	0.494819	0.472612	-0.445227	0.327418	0.392954	-0.490803	0.477835	-0.484383	0.372785	0.521342
0.554257	-0.420596	0.491562	-0.303085	-0.492312	0.391221	0.464961	0.332514	0.697953	0.461732	-0.526743	-0.381328	0.454913	-0.221947	0.336705	-0.504144	0.481216	-0.459148	-0.468306	0.526676	0.434402	-0.41955	0.501293	0.468466	-0.438973	0.481813	0.539763	-0.533911	0.484295	-0.391933	0.446011	0.529114
0.464078	-0.506497	0.486636	-0.537468	-0.471528	0.499324	0.456867	0.520666	0.527554	0.437951	-0.502129	-0.43273	0.522333	-0.599627	0.426891	-0.485377	0.448308	-0.479134	-0.455399	0.532416	0.530322	-0.460723	0.483192	0.455387	-0.46705	0.518495	0.515898	-0.460788	0.473005	-0.544914	0.421323	0.376065
0.567411	-0.620424	0.491025	-0.486568	-0.431805	0.356172	0.327904	0.292184	0.579274	0.40461	-0.479584	-0.471738	0.428962	-0.601615	0.534673	-0.445904	0.393498	-0.272186	-0.505024	0.433328	0.335817	-0.497325	0.415037	0.474574	-0.458261	0.541127	0.531111	-0.538682	0.418565	-0.549527	0.459441	0.545004
0.504103	-0.422973	0.516312	-0.428591	-0.328121	0.464733	0.426539	0.531638	0.398788	0.417207	-0.470119	-0.502273	0.510261	-0.240156	0.403683	-0.465805	0.476195	-0.506322	-0.508677	0.38164	0.490305	-0.497029	0.470728	0.416146	-0.485071	0.447328	0.476923	-0.516519	0.38606	-0.431548	0.450179	0.433281
0.730429	-0.466442	0.505512	-0.491768	-0.439955	0.507968	0.459879	0.364404	0.546813	0.475554	-0.439647	-0.444503	0.456414	-0.23816	0.485979	-0.457153	0.461889	-0.437309	-0.529876	0.54599	0.433041	-0.456807	0.554959	0.470318	-0.510697	0.477344	0.511831	-0.455253	0.409571	-0.544064	0.536452	0.535714
0.656674	-0.511425	0.510389	-0.494728	-0.438708	0.401295	0.415303	0.349825	0.631875	0.415978	-0.47134	-0.467526	0.45426	-0.514647	0.482891	-0.4751	0.502513	-0.43763	-0.434559	0.48558	0.427488	-0.42562	0.459389	0.431633	-0.431865	0.437139	0.492236	-0.433142	0.452482	-0.528937	0.421374	0.514178
0.682	-0.510953	0.455801	-0.39843	-0.525641	0.534271	0.465915	0.392322	0.443052	0.436009	-0.427492	-0.431611	0.453675	-0.417412	0.397224	-0.497209	0.470819	-0.427142	-0.42777	0.537011	0.409334	-0.445231	0.532678	0.428432	-0.407531	0.512852	0.503361	-0.485289	0.407076	-0.516709	0.440222	0.525095
0.824581	-0.544254	0.511036	-0.496305	-0.572764	0.381761	0.468693	0.45231	0.381868	0.500153	-0.505139	-0.3658	0.537251	-0.159952	0.553657	-0.431334	0.425649	-0.542364	-0.521068	0.479313	0.47371	-0.509	0.464382	0.493745	-0.507022	0.449943	0.543573	-0.430996	0.53603	-0.479981	0.516465	0.358583
0.457117	-0.531677	0.426808	-0.50357	-0.423597	0.498685	0.496344	0.417809	0.405518	0.434269	-0.444645	-0.463599	0.531754	-0.574394	0.529343	-0.461496	0.500815	-0.495366	-0.4622	0.483678	0.542288	-0.436945	0.507834	0.545893	-0.431408	0.454698	0.489966	-0.493424	0.493596	-0.47394	0.440048	0.516899
0.687316	-0.424556	0.474141	-0.380103	-0.46197	0.464091	0.549661	0.401053	0.594767	0.418836	-0.44418	-0.493104	0.521718	-0.300427	0.443204	-0.446898	0.455842	-0.478664	-0.378619	0.482715	0.53254	-0.417496	0.534972	0.453599	-0.40338	0.499891	0.484657	-0.504727	0.439871	-0.40685	0.488104	0.526994
0.457973	-0.467896	0.490962	-0.504455	-0.496679	0.515325	0.533754	0.433134	0.449791	0.500914	-0.52487	-0.463776	0.43007	-0.530931	0.462066	-0.460418	0.5137	-0.361597	-0.508664	0.432837	0.50126	-0.443434	0.527862	0.404811	-0.521035	0.52094	0.34852	-0.440187	0.450604	-0.462697	0.410549	0.36975
0.363216	-0.41514	0.466968	-0.415727	-0.431554	0.491912	0.421925	0.510258	0.492796	0.463054	-0.44121	-0.50429	0.451681	-0.566978	0.408056	-0.434222	0.502361	-0.521748	-0.513465	0.470489	0.473267	-0.430113	0.446993	0.537835	-0.474288	0.511609	0.447385	-0.511649	0.500419	-0.461217	0.470443	0.481755
0.423351	-0.44492	0.377082	-0.46901	-0.515068	0.472205	0.416287	0.35953	0.490108	0.500926	-0.347278	-0.363416	0.537042	-0.628732	0.440168	-0.447641	0.375494	-0.503418	-0.388524	0.491037	0.362722	-0.445855	0.513855	0.475831	-0.368081	0.50066	0.46609	-0.422335	0.471064	-0.512446	0.407615	0.391039
0.733931	-0.461144	0.481964	-0.467786	-0.379214	0.463299	0.544772	0.467283	0.512151	0.548264	-0.470158	-0.433299	0.506275	-0.411338	0.518737	-0.516645	0.452483	-0.440571	-0.487046	0.520531	0.409616	-0.462748	0.43935	0.464165	-0.526961	0.505622	0.448371	-0.46377	0.461369	-0.51021	0.489962	0.425125
0.709572	-0.519377	0.428234	-0.534312	-0.474851	0.43953	0.484211	0.509366	0.302156	0.521145	-0.431204	-0.319593	0.480171	-0.220029	0.530704	-0.497198	0.452653	-0.415975	-0.50081	0.460352	0.496333	-0.52159	0.497253	0.456602	-0.458476	0.493732	0.414017	-0.507364	0.510746	-0.466735	0.355142	0.457411
0.503668	-0.456092	0.496503	-0.472844	-0.43373	0.347504	0.422436	0.513343	0.315009	0.547286	-0.479551	-0.504751	0.436914	-0.315192	0.491184	-0.444441	0.410013	-0.341021	-0.449156	0.493021	0.52788	-0.491883	0.448548	0.487001	-0.438222	0.426689	0.506438	-0.487871	0.443559	-0.518703	0.525225	0.429853
0.373652	-0.369679	0.34528	-0.266821	-0.215653	0.361733	0.425939	0.349583	0.739935	0.41261	-0.430237	-0.568983	0.403722	-0.085515	0.429285	-0.39538	0.27291	-0.279686	-0.444805	0.356694	0.464969	-0.369193	0.412817	0.373499	-0.394947	0.355056	0.369173	-0.437835	0.413698	-0.310013	0.372995	0.423464
0.733994	-0.508704	0.578377	-0.487166	-0.412976	0.456562	0.499715	0.461123	0.514731	0.523625	-0.549951	-0.521525	0.451195	-0.346902	0.531904	-0.505735	0.499218	-0.472816	-0.518549	0.467607	0.488394	-0.519534	0.515238	0.53423	-0.426866	0.40398	0.419143	-0.527435	0.458803	-0.458465	0.460983	0.522584
0.428269	-0.405304	0.509289	-0.321498	-0.412303	0.498246	0.479397	0.417662	0.344071	0.404076	-0.487422	-0.465288	0.442393	-0.367016	0.394358	-0.462972	0.515111	-0.513031	-0.435205	0.445642	0.398312	-0.495341	0.442054	0.47373	-0.416735	0.426617	0.429801	-0.443576	0.511184	-0.516138	0.529544	0.380162
0.475788	-0.379264	0.380125	-0.476069	-0.407593	0.344967	0.397783	0.537976	0.505579	0.473959	-0.495762	-0.39573	0.505333	-0.548684	0.464878	-0.424435	0.438195	-0.399317	-0.469979	0.480546	0.444977	-0.51535	0.467693	0.46653	-0.480249	0.444351	0.545899	-0.489738	0.398774	-0.437933	0.499764	0.521931
0.125882	-0.462333	0.498863	-0.381995	-0.444965	0.419882	0.469847	0.42007	0.273675	0.428543	-0.457858	-0.461367	0.486072	-0.615187	0.48671	-0.411922	0.4358	-0.452118	-0.532395	0.500014	0.534913	-0.482132	0.452265	0.450447	-0.491626	0.520982	0.40076	-0.526772	0.401157	-0.525673	0.313681	0.396435
0.270863	-0.47637	0.469411	-0.436603	-0.440564	0.474501	0.444316	0.435363	0.24097	0.494531	-0.402124	-0.484465	0.462357	-0.552035	0.507158	-0.521766	0.471635	-0.482086	-0.486604	0.518505	0.441525	-0.470661	0.461802	0.439712	-0.415166	0.491181	0.434171	-0.550843	0.496406	-0.479536	0.45596	0.404507
0.038322	-0.309782	0.454252	-0.485047	-0.506185	0.533774	0.421589	0.38368	0.704688	0.532134	-0.488297	-0.393806	0.453852	-0.450749	0.409897	-0.503359	0.43249	-0.50826	-0.535332	0.550704	0.539453	-0.438096	0.454246	0.544788	-0.477735	0.508912	0.402444	-0.53262	0.471145	-0.504092	0.475929	0.421351
0.662026	-0.533088	0.480792	-0.497746	-0.415412	0.452025	0.526405	0.526765	0.291366	0.551056	-0.499607	-0.435106	0.455564	-0.493291	0.448454	-0.459301	0.43815	-0.518883	-0.507499	0.463475	0.53743	-0.537251	0.465922	0.499707	-0.53678	0.528232	0.466813	-0.399358	0.479168	-0.481005	0.54146	0.526473
0.430033	-0.339096	0.529999	-0.405197	-0.336643	0.399679	0.396163	0.358619	0.517519	0.456653	-0.473544	-0.560058	0.390569	-0.43935	0.408727	-0.387107	0.383383	-0.389267	-0.406499	0.379233	0.428426	-0.404237	0.430346	0.425862	-0.485527	0.501772	0.410892	-0.454755	0.516476	-0.466031	0.501204	0.458091
0.721317	-0.421343	0.512525	-0.42456	-0.457667	0.438629	0.528808	0.383074	0.454453	0.522408	-0.451117	-0.558084	0.495285	-0.527451	0.406078	-0.447055	0.468636	-0.452294	-0.449567	0.532335	0.434926	-0.427462	0.412197	0.479916	-0.497421	0.423653	0.444264	-0.393284	0.432594	-0.450642	0.434301	0.41835
0.591199	-0.47395	0.486157	-0.536056	-0.52534	0.400133	0.498313	0.425896	0.544219	0.482691	-0.43107	-0.523027	0.5294	-0.424444	0.446503	-0.501291	0.397016	-0.518214	-0.451859	0.517038	0.528138	-0.445778	0.524115	0.430809	-0.449435	0.460667	0.441491	-0.39046	0.458089	-0.456707	0.532899	0.423304
0.645875	-0.418336	0.434793	-0.475285	-0.559501	0.348973	0.449601	0.505493	0.43191	0.524568	-0.5016	-0.461005	0.440426	-0.657239	0.521178	-0.501318	0.445618	-0.376551	-0.461163	0.452778	0.489672	-0.440756	0.52625	0.550948	-0.460171	0.432685	0.521371	-0.469032	0.424683	-0.485326	0.54327	0.525081
0.73691	-0.487573	0.501576	-0.507981	-0.421836	0.504589	0.460855	0.455281	0.293758	0.477364	-0.546411	-0.46875	0.496787	-0.211376	0.515614	-0.472632	0.526667	-0.483008	-0.519634	0.530378	0.435937	-0.533309	0.55909	0.486224	-0.47412	0.456073	0.454004	-0.554106	0.506214	-0.472425	0.464725	0.440923
0.227864	-0.397063	0.418915	-0.372242	-0.540924	0.445837	0.504997	0.549221	0.334989	0.491572	-0.492912	-0.484381	0.451706	-0.445982	0.484901	-0.490159	0.512443	-0.466653	-0.478246	0.433204	0.404903	-0.395057	0.473981	0.540566	-0.435802	0.460351	0.486308	-0.415549	0.550539	-0.404143	0.550932	0.446277
0.22412	-0.493425	0.490111	-0.464441	-0.383598	0.499994	0.466498	0.441381	0.642158	0.394057	-0.440623	-0.434594	0.496303	-0.775881	0.446947	-0.48408	0.506977	-0.514711	-0.494309	0.494141	0.362957	-0.49903	0.472203	0.475076	-0.386607	0.450099	0.44824	-0.452665	0.548952	-0.536364	0.431692	0.358096
0.536479	-0.53553	0.345326	-0.4416	-0.315131	0.383808	0.330745	0.256335	0.308409	0.419152	-0.469482	-0.440412	0.373863	-0.58401	0.434535	-0.393911	0.365965	-0.283024	-0.334983	0.459688	0.330083	-0.499489	0.448278	0.454871	-0.454157	0.332668	0.436566	-0.319839	0.267345	-0.325624	0.283871	0.359168
0.660556	-0.469616	0.396832	-0.516075	-0.560514	0.500551	0.436341	0.408717	0.421639	0.451977	-0.515439	-0.399843	0.496756	-0.359062	0.460957	-0.455409	0.428067	-0.429155	-0.548066	0.491338	0.430522	-0.430153	0.429513	0.478458	-0.466161	0.529299	0.499722	-0.443983	0.526365	-0.51263	0.394256	0.420096
0.341583	-0.38451	0.3952	-0.518617	-0.354423	0.420109	0.40418	0.511142	0.333113	0.538554	-0.393854	-0.440057	0.478106	-0.446282	0.547716	-0.431757	0.452931	-0.403177	-0.427318	0.475117	0.481121	-0.426803	0.440342	0.551323	-0.475034	0.517029	0.426902	-0.500058	0.448709	-0.507977	0.423812	0.439352
0.69235	-0.496774	0.491127	-0.456457	-0.459385	0.433032	0.395473	0.44481	0.446902	0.531456	-0.436078	-0.392576	0.481999	-0.265238	0.483895	-0.524296	0.509813	-0.510286	-0.543174	0.467389	0.593709	-0.568883	0.468516	0.5622	-0.530325	0.441338	0.500307	-0.382288	0.519531	-0.524784	0.432473	0.506405
0.320291	-0.432273	0.424949	-0.491897	-0.423296	0.576504	0.485413	0.5078	0.221628	0.537926	-0.464772	-0.461228	0.53587	-0.542553	0.471051	-0.522832	0.536642	-0.489532	-0.515012	0.512522	0.466731	-0.422159	0.478211	0.546272	-0.455627	0.524281	0.396723	-0.489743	0.476616	-0.465074	0.429998	0.483938
0.777018	-0.46444	0.45369	-0.496806	-0.409701	0.452457	0.491252	0.438494	0.376892	0.547238	-0.464922	-0.436376	0.497585	-0.610953	0.424987	-0.472432	0.513952	-0.468001	-0.510242	0.467456	0.498247	-0.444375	0.427875	0.442606	-0.460545	0.473139	0.4436	-0.478783	0.434166	-0.502396	0.496094	0.457055
0.64899	-0.456159	0.439264	-0.432658	-0.523654	0.47814	0.546222	0.429678	0.439906	0.50449	-0.421233	-0.426846	0.440073	-0.451356	0.537478	-0.526909	0.533595	-0.529758	-0.529676	0.543762	0.54618	-0.447628	0.434257	0.492904	-0.423298	0.431565	0.529858	-0.500877	0.420145	-0.454947	0.380449	0.482464
0.506489	-0.472576	0.546962	-0.436539	-0.458818	0.481692	0.527106	0.480769	0.427476	0.443449	-0.489593	-0.487656	0.471244	-0.379149	0.453424	-0.491275	0.440599	-0.466936	-0.545954	0.526795	0.474699	-0.52199	0.486991	0.541992	-0.507617	0.463693	0.481326	-0.531217	0.431209	-0.457824	0.471541	0.529385
0.481708	-0.411487	0.578779	-0.491632	-0.4638	0.348596	0.505736	0.475973	0.378633	0.527814	-0.495595	-0.503975	0.480382	-0.216656	0.461537	-0.435006	0.418245	-0.450463	-0.511002	0.464805	0.554564	-0.483276	0.428492	0.551624	-0.466007	0.392484	0.500426	-0.542889	0.532523	-0.548281	0.467827	0.511481
0.449511	-0.561492	0.395379	-0.498503	-0.514562	0.534691	0.392834	0.530576	0.599721	0.417629	-0.50416	-0.346833	0.481902	-0.396664	0.383003	-0.434121	0.470379	-0.424736	-0.542743	0.42078	0.467671	-0.388435	0.502248	0.459252	-0.417053	0.440492	0.372758	-0.5244	0.486573	-0.393921	0.44359	0.418156
0.592126	-0.551223	0.492721	-0.475415	-0.3469	0.567984	0.523031	0.480805	0.12826	0.508923	-0.545514	-0.540839	0.512589	-0.349746	0.508164	-0.442342	0.545159	-0.410764	-0.46862	0.544947	0.463078	-0.490211	0.44453	0.499162	-0.489454	0.521912	0.418234	-0.513964	0.518142	-0.531326	0.42962	0.410667
0.836231	-0.447121	0.444243	-0.189506	-0.455624	0.35979	0.461555	0.53137	0.34402	0.31111	-0.307271	-0.319929	0.434624	-0.486965	0.2889	-0.511736	0.394709	-0.379671	-0.307134	0.327158	0.527512	-0.542058	0.535172	0.139595	-0.430806	0.364511	0.206097	-0.211404	0.278289	-0.295231	0.0615644	0.466519
0.671449	-0.449906	0.47848	-0.433606	-0.418212	0.453056	0.520412	0.487172	0.353746	0.358388	-0.479136	-0.424059	0.364426	-0.554116	0.466396	-0.430432	0.400672	-0.439099	-0.487266	0.453706	0.385647	-0.497307	0.423902	0.51108	-0.431738	0.48515	0.482877	-0.439564	0.517809	-0.383837	0.38512	0.480757
0.0733277	-0.489923	0.432718	-0.490855	-0.451616	0.395759	0.417597	0.477988	0.248343	0.415108	-0.458129	-0.376974	0.407783	-0.613388	0.54664	-0.420298	0.42624	-0.416589	-0.501979	0.376244	0.356997	-0.453615	0.408694	0.481411	-0.412357	0.401351	0.403858	-0.501047	0.450139	-0.438576	0.320924	0.524121
0.322437	-0.480285	0.44587	-0.423066	-0.522071	0.424545	0.505834	0.44887	0.384319	0.407949	-0.46272	-0.465183	0.41578	-0.0922934	0.403887	-0.504681	0.490669	-0.405259	-0.449476	0.473216	0.418736	-0.518221	0.496885	0.413763	-0.496841	0.48447	0.455278	-0.496059	0.447498	-0.382532	0.431983	0.456258
-0.744814	-0.469198	0.42814	-0.268094	-0.368128	0.513824	0.492047	0.443746	0.728093	0.480092	-0.5066	-0.568181	0.528038	-0.634783	0.445539	-0.497435	0.459766	-0.485609	-0.30249	0.408445	0.46935	-0.3835	0.346559	0.266603	-0.439702	0.455853	0.360701	-0.519884	0.490951	-0.520623	0.173429	0.519899
0.026554	-0.352635	0.475075	-0.401889	-0.503607	0.386396	0.444869	0.458601	0.173015	0.4507	-0.433315	-0.506545	0.504285	-0.661814	0.470483	-0.482967	0.502491	-0.398934	-0.393915	0.390794	0.416299	-0.481343	0.415954	0.427151	-0.447633	0.47949	0.454384	-0.53202	0.389468	-0.398124	0.422685	0.399734
-0.320089	-0.436324	0.477396	-0.463586	-0.353447	0.309109	0.30264	0.461265	0.221435	0.519401	-0.527608	-0.414952	0.449051	-0.592078	0.39053	-0.42927	0.441636	-0.452222	-0.471436	0.357028	0.38069	-0.532744	0.386962	0.498438	-0.490491	0.518447	0.464988	-0.470151	0.414068	-0.481006	0.357863	0.402334
0.375193	-0.507708	0.445664	-0.559471	-0.508161	0.45375	0.50357	0.510767	0.50044	0.505939	-0.521281	-0.493031	0.472515	-0.464253	0.542331	-0.451545	0.538025	-0.504093	-0.487675	0.41922	0.434521	-0.532689	0.480764	0.460339	-0.44722	0.479512	0.503087	-0.564716	0.523414	-0.507941	0.47624	0.542121
-0.17588	-0.447433	0.505562	-0.536483	-0.503924	0.352782	0.399142	0.316502	0.340007	0.429948	-0.469932	-0.57436	0.399583	-0.338031	0.48448	-0.442587	0.438711	-0.350769	-0.429483	0.566021	0.393702	-0.554052	0.318861	0.365601	-0.404229	0.474175	0.348382	-0.364667	0.369483	-0.399041	0.421539	0.416584
0.700113	-0.462088	0.433818	-0.490894	-0.494997	0.363006	0.53355	0.455886	0.539698	0.408086	-0.394841	-0.435505	0.510388	-0.59661	0.456679	-0.396656	0.519553	-0.473092	-0.433476	0.548101	0.408106	-0.446976	0.502268	0.50711	-0.434941	0.457237	0.454044	-0.359569	0.427704	-0.478524	0.532691	0.51144
0.743224	-0.48372	0.34682	-0.471232	-0.484734	0.318365	0.53864	0.429452	0.63195	0.470673	-0.457477	-0.319472	0.423792	-0.541584	0.428719	-0.517792	0.491744	-0.454849	-0.466382	0.471473	0.420892	-0.48384	0.507773	0.461055	-0.367481	0.484957	0.462509	-0.548168	0.496144	-0.514739	0.453649	0.474125
0.394764	-0.387935	0.503048	-0.423331	-0.386926	0.507193	0.453957	0.436233	0.64031	0.450922	-0.380926	-0.38545	0.480776	-0.739153	0.40525	-0.380497	0.385151	-0.396493	-0.510895	0.47702	0.488685	-0.442352	0.407942	0.52751	-0.469728	0.416892	0.394443	-0.482091	0.352478	-0.405441	0.391422	0.408906
0.639656	-0.513924	0.461268	-0.382788	-0.496653	0.544725	0.398235	0.448161	0.401886	0.464696	-0.545459	-0.494227	0.538547	-0.527629	0.44276	-0.50059	0.476584	-0.451996	-0.440152	0.388992	0.495545	-0.46319	0.516359	0.478091	-0.402683	0.543198	0.502175	-0.46591	0.534481	-0.468258	0.514351	0.459361
0.513554	-0.468049	0.470365	-0.401949	-0.482593	0.402597	0.430258	0.464949	0.600635	0.543482	-0.506765	-0.532042	0.427693	-0.24757	0.520844	-0.46742	0.472567	-0.43023	-0.505976	0.451884	0.481129	-0.403405	0.501219	0.509356	-0.493452	0.508654	0.507237	-0.470326	0.483094	-0.500794	0.492349	0.485699
0.474734	-0.505535	0.46119	-0.45955	-0.502026	0.409921	0.462585	0.376814	0.587312	0.468788	-0.463473	-0.51913	0.529868	-0.0800455	0.438173	-0.451002	0.546318	-0.544589	-0.429712	0.496077	0.514581	-0.488687	0.464951	0.432361	-0.437087	0.488819	0.486795	-0.560843	0.431719	-0.543025	0.485673	0.508734
0.548749	-0.451136	0.530608	-0.403317	-0.323403	0.436457	0.491226	0.416972	0.599783	0.450989	-0.476719	-0.479639	0.519526	-0.49481	0.495442	-0.43932	0.454933	-0.539355	-0.498742	0.53359	0.464356	-0.496667	0.518118	0.458795	-0.426168	0.473546	0.457403	-0.378207	0.435339	-0.524744	0.451528	0.51504
0.745662	-0.48098	0.505144	-0.52505	-0.417794	0.500262	0.435039	0.496383	0.524373	0.451248	-0.50187	-0.412054	0.438746	-0.467325	0.546615	-0.471087	0.437649	-0.508782	-0.505123	0.473144	0.484741	-0.523098	0.404679	0.459654	-0.509317	0.457738	0.507854	-0.440729	0.463568	-0.461052	0.460708	0.449281
0.699766	-0.442159	0.440552	-0.480548	-0.469868	0.562958	0.513222	0.504233	0.34504	0.442532	-0.484804	-0.501823	0.503814	-0.633542	0.430924	-0.505699	0.422731	-0.466249	-0.496002	0.469578	0.490236	-0.428193	0.512103	0.523242	-0.436586	0.522676	0.508467	-0.487128	0.422914	-0.427015	0.475101	0.488203
0.292393	-0.418314	0.531751	-0.41486	-0.430754	0.291171	0.443968	0.441323	0.241442	0.46117	-0.364703	-0.473629	0.504665	-0.732259	0.418642	-0.37754	0.527063	-0.369864	-0.506642	0.470393	0.400508	-0.511962	0.268304	0.433762	-0.493531	0.484046	0.521707	-0.508329	0.360986	-0.471982	0.372543	0.366691
0.532054	-0.588702	0.422345	-0.523625	-0.50914	0.502358	0.542325	0.533471	0.421128	0.461248	-0.515409	-0.430308	0.458328	-0.528665	0.353484	-0.514809	0.504455	-0.571156	-0.498376	0.46172	0.440724	-0.499775	0.440081	0.471893	-0.50957	0.413576	0.505937	-0.413375	0.365348	-0.46728	0.291129	0.449521
0.5438	-0.45217	0.529111	-0.433559	-0.488467	0.391285	0.474427	0.538211	0.346646	0.457705	-0.434194	-0.410323	0.462416	-0.553443	0.569365	-0.527058	0.478686	-0.507722	-0.482808	0.543834	0.456331	-0.415484	0.488198	0.528423	-0.508814	0.490715	0.521549	-0.526036	0.483856	-0.516623	0.534526	0.510786
0.646992	-0.506434	0.426017	-0.455785	-0.373678	0.415482	0.483388	0.366295	0.560184	0.444394	-0.453816	-0.450714	0.528029	-0.502391	0.360049	-0.481914	0.422307	-0.530723	-0.433693	0.440131	0.528537	-0.442312	0.514537	0.515439	-0.521464	0.512142	0.41689	-0.515253	0.450188	-0.51647	0.445516	0.344098
0.0525543	-0.377123	0.410262	-0.451516	-0.463739	0.494133	0.442023	0.356254	0.540932	0.51789	-0.507005	-0.382433	0.479924	-0.136403	0.429277	-0.398464	0.426168	-0.354624	-0.467652	0.479356	0.4611	-0.50144	0.471593	0.389267	-0.369066	0.430837	0.482043	-0.440884	0.418203	-0.499825	0.553507	0.41338
-0.117499	-0.514243	0.504186	-0.559648	-0.41367	0.457044	0.492722	0.409929	0.456984	0.515741	-0.386305	-0.387919	0.516442	-0.571306	0.522405	-0.458042	0.408811	-0.431183	-0.472737	0.422808	0.458519	-0.387519	0.465878	0.501751	-0.491658	0.537589	0.508511	-0.431262	0.390551	-0.500299	0.42066	0.433157
0.15489	-0.434874	0.475747	-0.42647	-0.519237	0.453166	0.519327	0.474878	0.0268965	0.550919	-0.40281	-0.405692	0.356779	-0.219213	0.456454	-0.493334	0.465876	-0.495617	-0.541795	0.483422	0.525592	-0.501742	0.452735	0.373381	-0.487153	0.559572	0.561289	-0.411608	0.466176	-0.437294	0.505877	0.575008
0.266732	-0.523543	0.485344	-0.380897	-0.476553	0.473328	0.46664	0.460614	0.393221	0.398401	-0.488532	-0.406291	0.526554	-0.635004	0.467895	-0.391791	0.514947	-0.486574	-0.489629	0.454507	0.538274	-0.451587	0.467589	0.495049	-0.377912	0.484081	0.465244	-0.451408	0.52342	-0.504753	0.451575	0.433794
0.555225	-0.519883	0.467602	-0.538421	-0.348616	0.541712	0.493495	0.541876	0.322442	0.541954	-0.519411	-0.493637	0.530987	-0.201958	0.407881	-0.533373	0.427542	-0.471551	-0.466588	0.417787	0.470374	-0.498178	0.44252	0.409779	-0.512935	0.479221	0.519149	-0.442676	0.463472	-0.517335	0.49991	0.377375
0.350285	-0.382186	0.450741	-0.375037	-0.458147	0.401224	0.453387	0.454777	0.609874	0.410832	-0.414956	-0.422754	0.458629	-0.596831	0.353991	-0.413635	0.383358	-0.526129	-0.421801	0.490591	0.513665	-0.440281	0.531876	0.442893	-0.490687	0.369394	0.469067	-0.419997	0.477742	-0.423218	0.389734	0.506255
0.257257	-0.534581	0.534509	-0.506217	-0.411659	0.431518	0.437993	0.450172	0.344841	0.471044	-0.544788	-0.448059	0.441895	-0.538835	0.522954	-0.466896	0.533824	-0.41214	-0.536308	0.447121	0.509707	-0.431035	0.535114	0.523098	-0.480421	0.475105	0.395251	-0.519268	0.544773	-0.453847	0.444528	0.383311
0.473649	-0.421472	0.446305	-0.443394	-0.382482	0.507286	0.446423	0.518004	0.462122	0.432994	-0.521042	-0.422303	0.487613	-0.445998	0.402143	-0.394733	0.40111	-0.475651	-0.463105	0.446075	0.392814	-0.433741	0.472779	0.48779	-0.457754	0.450002	0.40318	-0.409881	0.373111	-0.465629	0.415799	0.48078
-0.0715735	-0.415275	0.513776	-0.491915	-0.580663	0.516734	0.390689	0.435779	0.170346	0.456294	-0.516491	-0.437134	0.451563	-0.425774	0.533059	-0.430203	0.573192	-0.512646	-0.4351	0.410645	0.470747	-0.435026	0.472186	0.494174	-0.488113	0.494411	0.469387	-0.479192	0.490602	-0.563585	0.470491	0.388131
0.191795	-0.449392	0.521865	-0.426377	-0.384599	0.554743	0.471346	0.391328	0.357231	0.442575	-0.467467	-0.518727	0.484965	-0.572085	0.563999	-0.50686	0.54003	-0.508998	-0.443269	0.534797	0.44929	-0.49516	0.437593	0.48548	-0.465497	0.531218	0.429562	-0.502431	0.44642	-0.428958	0.406453	0.567584
0.386985	-0.418396	0.459834	-0.509134	-0.406662	0.492572	0.544875	0.435965	0.218549	0.507742	-0.491243	-0.383491	0.495588	-0.218693	0.369212	-0.496042	0.484683	-0.534439	-0.418337	0.448298	0.375901	-0.528825	0.44779	0.501615	-0.477045	0.491153	0.466636	-0.511776	0.514976	-0.478432	0.391277	0.400343
0.551299	-0.486946	0.465847	-0.374482	-0.471431	0.45621	0.388868	0.502828	0.49197	0.347523	-0.472044	-0.520356	0.486909	-0.639384	0.389314	-0.439174	0.431224	-0.468932	-0.407713	0.439234	0.457232	-0.435011	0.467504	0.528798	-0.467307	0.40992	0.499734	-0.405556	0.507316	-0.413139	0.407343	0.44143
0.312011	-0.509744	0.520539	-0.564937	-0.514148	0.486337	0.544216	0.505736	0.34981	0.523219	-0.475763	-0.405877	0.497074	-0.519585	0.495276	-0.524815	0.45607	-0.484063	-0.551835	0.481706	0.508114	-0.44238	0.513213	0.44919	-0.454987	0.511073	0.500934	-0.447827	0.510187	-0.446347	0.455933	0.401513
0.331139	-0.373319	0.38351	-0.255285	-0.402937	0.287895	0.397967	0.436903	0.715792	0.335523	-0.391948	-0.480935	0.413425	-0.316617	0.416036	-0.42763	0.255421	-0.20806	-0.403735	0.31412	0.447587	-0.333214	0.344247	0.412984	-0.351493	0.369893	0.431646	-0.347887	0.336044	-0.423303	0.404046	0.38599
0.306743	-0.487396	0.449529	-0.435952	-0.410601	0.403262	0.400774	0.42752	0.548784	0.434338	-0.375626	-0.404792	0.491499	-0.71219	0.439156	-0.498145	0.529352	-0.498568	-0.502869	0.422022	0.394974	-0.482743	0.419844	0.344734	-0.485953	0.502173	0.470827	-0.578534	0.455761	-0.495791	0.416623	0.490898
0.308283	-0.506345	0.499109	-0.446867	-0.401772	0.434956	0.484477	0.465433	0.28449	0.516579	-0.478932	-0.461676	0.534176	-0.536658	0.451855	-0.549312	0.526163	-0.474374	-0.491583	0.471911	0.410137	-0.471925	0.486003	0.510236	-0.538316	0.481091	0.471866	-0.523251	0.455311	-0.493652	0.449249	0.451726
0.637123	-0.508811	0.405226	-0.371151	-0.45385	0.363922	0.432492	0.382609	0.501441	0.425115	-0.401361	-0.303266	0.489602	-0.561561	0.49919	-0.412441	0.502894	-0.371418	-0.417255	0.407802	0.472635	-0.519319	0.483539	0.420114	-0.467919	0.461207	0.539404	-0.442853	0.53978	-0.497566	0.449117	0.489951
0.737717	-0.487076	0.435762	-0.444682	-0.475093	0.416714	0.508696	0.499534	0.514229	0.418954	-0.385015	-0.534837	0.472557	-0.278632	0.489627	-0.422893	0.494387	-0.503409	-0.527727	0.439381	0.492189	-0.529969	0.431163	0.470916	-0.50375	0.542089	0.526301	-0.451828	0.448736	-0.522819	0.488444	0.480988
0.668773	-0.545965	0.508557	-0.483782	-0.437728	0.528342	0.439311	0.49542	0.473791	0.533615	-0.509214	-0.46181	0.477098	-0.414436	0.485264	-0.456692	0.447601	-0.543298	-0.522178	0.424659	0.498097	-0.506529	0.444593	0.476261	-0.525699	0.488108	0.500601	-0.45184	0.474606	-0.487641	0.45004	0.474184
0.877723	-0.507591	0.514683	-0.400634	-0.419665	0.499498	0.551226	0.48834	0.710481	0.376358	-0.375393	-0.531681	0.45522	-0.374756	0.444477	-0.499528	0.446178	-0.436145	-0.517623	0.440352	0.535217	-0.436827	0.48714	0.498573	-0.484591	0.351246	0.415826	-0.4918	0.463278	-0.548854	0.532576	0.497642
0.495781	-0.471756	0.465465	-0.452575	-0.487272	0.463373	0.471219	0.541439	0.330473	0.431992	-0.392251	-0.446095	0.476113	-0.374286	0.439442	-0.500224	0.416222	-0.465282	-0.5258	0.444393	0.495678	-0.48079	0.507831	0.505969	-0.481957	0.488427	0.514315	-0.492259	0.489261	-0.525562	0.440056	0.538395
0.804566	-0.405343	0.52926	-0.500929	-0.444278	0.349946	0.424515	0.435111	0.413718	0.378691	-0.463587	-0.415771	0.482439	-0.432156	0.455533	-0.484827	0.445616	-0.440203	-0.522791	0.502372	0.426126	-0.422477	0.487835	0.499222	-0.464853	0.435493	0.432025	-0.487528	0.499343	-0.458452	0.439527	0.47618
0.827541	-0.457382	0.531462	-0.455631	-0.474308	0.379174	0.479779	0.500717	0.415549	0.48723	-0.408746	-0.387883	0.438756	-0.60301	0.539817	-0.500012	0.523013	-0.433248	-0.462459	0.450409	0.538689	-0.463536	0.460964	0.452256	-0.510226	0.55744	0.478466	-0.450304	0.446621	-0.438285	0.474272	0.504063
0.554814	-0.513952	0.503197	-0.48347	-0.485774	0.510038	0.52181	0.451497	0.200983	0.538104	-0.498173	-0.508293	0.500415	-0.465027	0.472464	-0.425373	0.517052	-0.430114	-0.541231	0.492922	0.488627	-0.481404	0.518772	0.547571	-0.488279	0.436717	0.45684	-0.554147	0.526363	-0.495764	0.408375	0.475005
0.772041	-0.475358	0.53235	-0.502777	-0.486052	0.454397	0.501993	0.558482	0.486129	0.453921	-0.438109	-0.445927	0.531927	-0.533636	0.453458	-0.536311	0.473525	-0.479957	-0.522606	0.536634	0.434065	-0.462787	0.428055	0.501205	-0.542531	0.431579	0.552223	-0.458369	0.451566	-0.472659	0.398649	0.534891
